0,609605 -1,167454 -0,843040 -0,552090 -1,224312 -0,636448 
-1,077852 -0,368536 0,294381 0,383697 -0,171997 -0,822249 
0,213263 -0,461984 0,695358 -0,878234 -0,287608 -1,234931 
-0,565239 0,483734 0,005561 0,420699 -1,146600 -0,928405 
-1,532200 -1,820741 1,322509 1,286509 -2,226294 -0,605850 
-0,696273 0,346177 -0,775241 0,413291 0,254236 0,691182 
1,428654 0,949807 -0,967840 -0,808011 -0,934646 1,060057 
-0,109621 -2,161765 0,381092 0,414383 -0,001166 0,679740 
-0,038127 -2,615690 0,384406 -0,423965 -2,835547 0,418936 
0,054339 0,971234 0,896695 -0,666638 -3,593510 0,223520 
0,081956 0,589163 1,363693 0,508700 0,399876 -0,491928 
-1,350678 -1,454600 0,473524 -0,119397 -1,344597 0,479403 
-0,528858 -0,203048 0,636460 -2,312198 -2,915489 2,039289 
-0,768083 -0,055800 0,275835 -0,540245 0,125946 -0,214949 
0,544424 0,169663 0,061748 0,530296 0,196192 -0,067321 
0,729179 -0,000161 -1,096794 0,661178 -0,040450 0,172651 
-0,999059 0,264405 -0,110817 0,067326 -1,082154 -0,673395 
1,146834 0,858072 0,137009 1,277576 -0,447658 -1,226420 
-1,290318 0,499131 -0,453672 0,373837 -0,566768 -0,722245 
-0,483236 0,274691 0,381700 0,434212 -0,201165 -0,088060 
0,015604 -0,268133 0,040348 0,411125 -1,127684 -0,176964 
-0,741587 -0,117664 0,384894 -0,847041 -0,019266 0,628194 
0,159196 0,127377 -0,363412 -0,775693 -0,095081 -0,113206 
0,658332 -0,448783 -0,806550 0,570491 0,632052 -0,116953 
-1,043811 0,587060 -0,394071 -0,471950 0,510786 0,261429 
-0,440666 0,538672 -0,709705 0,321928 -0,069996 -0,697656 
-0,479066 0,181993 0,011834 -0,161563 -1,056434 -0,267622 
-0,167617 0,451264 0,584174 -0,062095 -0,421751 -0,813599 
0,105193 0,194144 -0,748232 -1,024172 0,660501 0,140445 
-1,114151 0,665507 0,493991 -0,226046 0,208520 0,250627 
0,901492 0,266051 -1,814945 1,006688 1,894705 0,343848 
0,556112 -0,561624 -0,868802 -1,005336 -0,615039 0,446786 
0,601951 0,864489 -0,808387 -0,777808 0,190983 0,920074 
0,397524 -0,978414 0,146733 0,052262 0,296467 0,621603 
0,051665 -1,204058 -0,108597 -0,100290 0,477232 0,034354 
0,218571 -1,332492 0,155937 0,584602 0,701724 0,299359 
0,579789 -3,004062 1,189947 -2,869996 1,863797 0,848656 
-0,063518 0,337037 0,375887 -0,166088 -2,039892 0,166514 
0,348951 -0,348044 -0,284239 -1,084465 0,570826 -0,545094 
0,233102 -0,357227 -1,044614 0,071470 -0,763764 0,301879 
-0,497628 -0,613580 1,927175 -0,879220 -1,396696 0,601734 
-1,112657 0,383052 0,969338 -0,553091 0,853879 0,911034 
0,537898 0,888616 -0,365746 -0,012036 -1,115252 -0,527714 
-1,078607 -0,570491 -0,140537 0,080834 0,112061 -0,919725 
-1,211167 0,866373 0,624540 0,401579 0,785930 0,193935 
0,175990 -0,749753 0,195443 -1,285816 -1,058332 -0,029438 
-0,510236 -0,412387 -0,795655 -0,210246 -0,901948 0,341541 
-0,078448 0,530267 -0,967225 -0,464139 -0,258120 -0,076710 
-0,375978 -1,093020 -0,367339 -0,815269 0,657824 -0,761914 
-1,540115 -1,488227 1,131018 -1,004822 -2,299764 0,816789 
-0,687476 0,456712 -0,682527 -0,092278 -0,461122 0,499545 
-0,721913 0,325078 0,608247 0,121291 -0,240756 0,037875 
-1,969533 1,505792 0,592842 -0,508230 -2,585121 1,232506 
-0,987805 0,542479 -0,771646 -0,777167 -0,115751 0,409411 
-1,368241 0,037029 0,506476 -0,491771 -0,501290 -0,826445 
0,126812 0,161971 0,211391 0,462080 -0,119196 0,370895 
-0,390813 0,424410 0,486476 -0,466237 -0,647631 0,051101 
0,465770 0,576589 0,588584 0,496021 -0,599033 -1,682733 
-3,564413 -0,081279 1,277511 1,475033 1,869477 -0,171513 
0,349050 -0,706704 -0,080396 -0,244172 -0,486805 0,308743 
-0,147234 0,084194 0,056008 -1,070473 0,333337 -0,167479 
-0,956629 0,352360 -0,034566 -0,932321 0,007936 -0,689002 
-2,685324 -0,354777 0,287574 2,459761 -2,977201 -0,718822 
-2,862945 2,349677 -0,219211 3,014059 -1,408224 1,123073 
0,236751 0,258761 -0,429352 -0,340869 0,507895 0,185249 
0,218293 -0,957042 -0,580425 -0,057722 -0,115765 -0,255281 
0,626815 0,169918 0,667509 -0,148586 -0,021761 0,124980 
2,639780 -0,615941 -0,193744 2,674225 -3,367712 -0,344706 
-0,533128 -0,526828 0,140557 -0,065702 -0,297197 -0,768233 
1,308069 1,373462 -1,068234 1,268060 -0,769857 1,046060 
0,338006 -0,779655 -0,714201 -0,835053 -0,633378 -0,184085 
0,105783 -0,567328 -0,078806 0,100194 0,744891 -0,231248 
0,049898 -0,848983 -0,378189 0,160626 0,288624 0,003087 
-0,803476 -1,677559 1,150233 0,954045 -1,875911 -0,504117 
0,660379 -0,888533 -0,760918 -0,794197 -1,026992 -0,700987 
-3,598856 -0,616882 1,491793 -3,265016 1,036240 0,900142 
-1,365790 -1,713646 1,140746 -0,797694 -1,688675 0,327076 
2,022045 -2,037483 -2,212491 1,838362 -2,644554 1,268903 
-2,492184 1,852949 0,999927 -0,216611 -3,722303 1,094491 
0,272890 0,222590 0,180281 -0,393349 -0,296036 -0,007905 
-0,708043 -0,823755 -0,723603 -0,981424 0,317130 -0,530943 
0,128704 -0,018214 0,105462 0,397698 -0,546146 -0,459730 
-1,000137 -0,238924 -0,410289 -1,132212 -1,082258 -0,859725 
0,014249 0,257709 0,180188 0,099402 -0,310349 0,326201 
-0,155084 -0,769976 0,121214 -0,448153 0,585927 -0,584255 
0,634740 0,650067 -0,032382 -0,810311 0,226783 -0,296968 
0,663761 -0,177773 -0,036179 0,272318 -0,124502 0,356523 
-0,834657 -0,422437 0,239326 -0,966510 -0,331553 -0,547609 
-3,702983 -0,059063 1,098419 0,547835 0,796468 0,338692 
-0,521695 0,059174 -0,635008 -0,568842 -0,628132 0,149590 
0,486591 0,619105 0,419229 -0,223854 -3,312174 0,879603 
0,475698 -0,563897 0,105658 -1,061250 0,613344 0,233226 
-0,884925 -0,429401 0,313431 -1,140489 0,420485 0,101501 
0,598950 -0,981380 0,395960 -1,103634 0,749746 0,139503 
-0,532866 0,429550 -0,465057 0,546796 -1,117611 -0,829039 
1,377115 -2,128297 -1,149958 -0,525522 -2,030381 1,595600 
0,320047 -0,349672 -0,379978 0,010185 -0,804482 -0,024556 
-1,112736 -1,478421 -1,122271 1,869769 -1,180045 0,558709 
0,122621 -0,484730 -1,039643 0,922863 1,072701 0,103020 
0,533336 0,524604 -0,766052 1,010072 1,198986 0,742479 
-0,554636 -0,020555 0,103085 -0,945027 0,554702 0,252461 
-0,346521 0,308074 -0,183463 -1,068419 0,408561 -0,792499 
0,374180 1,448789 0,675816 1,347368 -0,341165 -1,190957 
0,438537 0,078400 -2,041764 1,029627 1,402460 0,469322 
1,316946 -0,033633 -0,920026 -0,362766 0,632332 0,773201 
-0,367703 0,745944 0,722159 1,198414 0,231043 -1,018621 
0,404117 -0,697527 -0,484080 -0,368124 -0,208710 -0,288126 
-0,726963 0,453502 -0,208596 -0,257641 0,560032 -0,373611 
-0,415873 -1,187669 -0,395762 -0,443786 -0,804225 0,174194 
0,050919 -0,043178 -0,145898 0,574596 -0,666630 -0,212740 
-2,256192 3,376279 1,087239 3,604472 -3,038629 -0,572960 
0,100177 0,328291 0,664384 -0,081979 -3,109106 -0,501650 
-1,237916 1,736487 1,663449 1,049624 -2,381259 -0,314334 
-1,651296 1,146143 0,967974 0,969275 -0,073662 0,357099 
1,294373 -0,938984 0,231026 1,384792 -1,552951 -0,873077 
0,702509 1,618311 0,782389 -2,601416 -3,680898 1,154983 
0,679081 -2,692798 0,477553 2,264732 0,521538 -1,132108 
-0,494792 0,565863 -0,226555 -0,472603 0,640259 -0,984002 
-0,327953 -0,754453 0,169277 -0,088014 -0,667280 0,687541 
0,337394 -0,163351 -0,769503 -0,390039 -0,217338 0,753871 
-1,692480 -2,929193 -0,409307 1,554708 -2,769492 0,762098 
-0,765534 -0,851227 -0,275832 -0,580992 0,314374 -0,925083 
1,994364 -2,546906 0,166721 1,731498 -2,416204 -1,104957 
-0,761160 0,641296 0,778449 -0,382837 -0,077525 0,066230 
-0,750635 -0,111659 0,109754 -0,045056 0,518924 -0,705298 
0,204115 0,108542 -0,895454 -0,306865 -0,824143 -0,749381 
1,203424 0,046130 0,000780 -0,238749 0,964410 0,993484 
-0,435461 0,177820 0,118962 -0,557542 -0,157704 0,085532 
-2,610575 0,194179 0,735968 -4,052803 1,217707 1,086026 
-2,583913 -0,471479 0,123068 1,933502 -2,981217 0,721863 
0,666560 -0,705905 -0,373339 -0,350654 -0,669530 -0,421395 
0,387801 0,755370 -0,925670 1,021084 0,009044 0,688255 
-1,015680 -0,471792 -0,232688 -0,530775 0,133450 -0,057040 
0,041040 0,410914 -0,253709 -0,014212 0,233497 -0,685617 
-1,488308 -1,476630 -1,044358 -0,563827 -1,499366 2,025449 
-0,812258 0,457449 -0,212337 -1,127334 0,439466 0,467082 
-0,440489 -0,652085 -0,321771 -0,136001 0,176318 -0,028705 
-0,270387 -0,998568 0,352241 -0,199526 0,293230 -0,072831 
0,248029 -0,766655 -0,647281 0,518553 -0,063133 -0,863058 
-0,498602 -0,343903 -0,516040 -1,063903 -0,341366 0,911382 
-0,540034 0,448704 -0,758551 0,326060 -1,008069 -0,025696 
-3,114379 0,998551 1,256300 0,760917 -0,294116 0,193835 
-0,560468 0,104729 -0,406787 0,716758 0,186478 0,360103 
-0,513680 -0,513643 -0,908444 -0,269336 -0,063282 -0,461109 
1,140110 -2,641964 -1,672346 2,404382 1,492363 0,854900 
0,095114 -0,481100 0,081187 -0,383041 0,217655 -0,184132 
-0,282685 -0,799768 0,639990 -0,105610 0,158700 -0,139566 
-0,891923 0,682683 -0,001538 0,403051 0,474148 -0,236202 
0,330271 -1,017600 0,028687 -0,466925 0,650028 0,662549 
-0,100680 0,595078 -0,598357 -0,528977 0,046074 -0,212483 
0,212056 0,384120 0,361652 0,455887 -0,028851 -0,411981 
0,325113 -0,051506 0,485368 -0,612401 -0,464201 0,407644 
-0,087142 0,392969 0,170856 -0,507332 -0,234127 -0,188148 
-0,014819 -0,023793 0,484496 -0,406481 -0,808739 0,343230 
0,250974 -0,358004 -0,638332 -0,247502 0,650896 -0,096304 
-0,168242 0,118496 0,554433 -0,364787 -0,339832 -0,905814 
-0,583716 0,610491 -0,931821 -0,568083 -0,634016 -0,103299 
2,185958 -1,802478 -1,363921 2,910913 2,456385 -0,347806 
-2,007192 2,157157 0,644164 2,466320 -3,127437 0,406161 
-0,414897 1,969737 0,840310 2,306405 -2,290958 0,178692 
-0,399299 0,584274 0,273534 0,089045 -0,936906 -0,362191 
-0,020232 0,561014 0,397301 -0,242181 -0,007596 0,561850 
-2,492587 1,218573 0,302524 2,772822 -2,839492 -0,453617 
0,486070 -0,688398 -0,374405 0,125735 0,462309 -0,576155 
-2,160712 -2,577313 -1,458697 2,575569 2,279689 1,158427 
-1,495908 0,351570 0,864660 -0,088184 0,851042 0,530171 
-2,637409 1,520156 0,463700 2,761751 -2,658874 -0,956630 
0,548594 -0,382297 -0,794746 -0,116616 0,231864 -0,478712 
-0,871143 0,884584 0,718712 0,919838 0,083244 -0,529396 
1,424884 -2,944122 1,699365 -0,764646 1,310426 -0,072564 
-0,996543 -0,398921 -0,392381 0,128620 -0,742281 -0,982824 
0,102568 -0,638770 0,707176 -0,293551 -0,272316 -0,078511 
-2,016385 0,953582 1,092232 0,645001 1,015200 0,869024 
0,020218 -0,531657 -0,293622 0,367946 0,028943 -0,111853 
0,526949 0,899012 -0,265075 0,474801 -0,330228 0,814543 
0,641475 0,151329 -0,364710 0,743720 -1,160977 -0,118244 
0,126113 0,708767 0,072291 -0,965338 0,610293 -0,225627 
1,263875 -1,875791 -1,738419 1,880611 1,429984 0,689754 
-0,755361 0,541333 0,290653 -0,800876 -0,443020 -0,308549 
0,780647 -0,135164 0,547019 0,116621 0,385177 0,675613 
-1,459516 1,846368 0,088928 3,361959 -2,598625 -0,145215 
-1,434810 1,245896 0,051336 0,508142 -0,202063 -0,874424 
-0,399044 -0,264226 -0,051807 -0,326072 -0,586082 0,118758 
-0,801383 -0,802501 0,314794 0,157186 -0,130120 -0,383831 
-0,153616 -0,654346 -1,032592 -0,676903 -0,684567 0,588615 
0,351731 -2,784842 -0,059887 -2,575530 -0,762374 1,363586 
-0,307971 -0,381381 0,547921 0,454676 0,107254 -0,282681 
-3,107082 -0,633738 1,197493 -3,437138 0,267438 0,890671 
-2,712912 0,072052 1,315935 0,230206 -0,224522 0,090490 
-0,667457 -0,531152 -0,474411 -0,801934 0,433636 -0,419537 
-0,402907 -0,226996 0,090985 0,441310 -0,600634 -0,557535 
2,651008 -0,998374 -0,536597 0,899934 -1,222042 0,355432 
0,566379 0,257206 0,453405 -1,046136 -0,091533 0,484498 
0,370459 -0,480156 -0,423595 -0,594768 -0,494570 -0,075044 
0,869117 -0,223026 -2,563759 0,430368 1,278057 0,608337 
0,379677 0,524487 0,147835 -1,100060 -0,327745 -0,147763 
-0,469062 0,268406 -0,785588 -0,714450 -0,764873 0,791920 
0,195733 0,723303 -0,395544 0,269597 -1,123484 -0,201541 
-1,714075 1,387985 1,997835 -2,814198 -3,770517 1,294184 
0,141216 0,125231 0,696646 -0,299645 0,593156 -0,045104 
-0,679613 -1,394592 2,233603 -0,654714 -1,546042 0,050473 
-0,504307 -0,795847 -0,478361 0,739003 0,552305 0,176797 
1,608034 -3,337923 -0,310107 1,284860 1,945135 0,581535 
-1,078154 -0,300669 -0,678359 -0,954899 0,543844 -0,355984 
0,459562 -0,204941 0,356249 -0,089466 0,135096 0,471410 
0,128637 -1,088903 0,350187 -0,584221 0,545589 0,287643 
0,398298 0,486031 -0,567580 0,316316 0,083896 0,044995 
-0,526958 0,546353 -0,656966 -0,366149 0,247492 0,002096 
0,019543 0,399115 0,170720 0,389676 -0,356417 0,107899 
-0,690122 0,477212 0,229930 -0,152619 0,571739 -0,264050 
-2,437914 -0,888765 1,549467 -1,700834 1,466793 0,223217 
-0,659579 -0,764725 0,006613 -0,140344 -0,117394 -0,581381 
0,067803 -0,487366 -0,632210 -1,167681 -0,255029 -0,074319 
-2,653067 -2,518149 1,466417 -0,779068 1,507025 1,301685 
0,112377 -0,715452 -0,327984 -0,231003 -0,933010 -0,624717 
-1,043947 -0,412909 0,029222 -0,529238 0,012203 0,213490 
-0,148899 -0,983921 -0,400616 0,372143 0,240733 -0,333991 
0,351778 0,618527 -0,098617 0,090221 -0,965570 -0,433415 
0,260878 -0,796969 -0,450242 -0,022720 -0,157300 0,115318 
-1,206660 -0,932955 1,196942 -0,886288 -1,115773 1,202108 
0,366903 0,110225 -0,481060 -0,028127 0,468001 0,506606 
-0,027890 -0,332912 0,239982 3,027264 -0,253928 0,013234 
0,962158 0,073551 -1,344026 0,632564 0,603979 0,470719 
-0,011990 -0,703110 -0,565062 -1,080238 0,468462 -0,046218 
-1,641907 -0,673027 0,240804 0,791870 -2,355977 1,079697 
-0,355049 -0,341567 1,055707 -0,286393 -0,303105 0,283850 
0,641198 0,095319 -0,467842 -0,403483 -0,125861 -0,116423 
0,566694 0,668831 0,801796 0,255266 -0,113279 -1,550868 
-0,427902 -0,215400 -0,198557 0,090083 -0,824318 0,022419 
0,549712 1,218712 0,716358 0,775698 -0,665638 -1,566910 
-1,067352 -2,506246 0,501770 -3,304205 -0,453610 1,062289 
0,670067 -0,031365 -0,342351 -0,675863 -2,803233 0,670765 
0,039394 1,468758 0,658612 0,436372 -3,328585 0,536583 
1,099282 0,033501 -0,052322 -2,445889 -0,376012 1,065218 
-0,811488 -0,390776 0,028288 -1,049100 -0,711596 0,137201 
1,363489 0,664708 -1,540954 0,899427 0,283544 0,631753 
-0,513967 0,784320 0,716603 -0,792461 0,235585 -0,670111 
-0,008164 0,093126 0,531979 -0,334273 0,175076 -0,230919 
-0,129368 -0,832317 -0,638686 0,138972 -0,443950 -0,871500 
-0,465251 0,598989 0,937016 0,449650 -0,164338 -1,208930 
0,030450 -0,552721 0,365933 0,499417 0,208645 -0,086115 
0,857296 0,439774 0,205050 0,521320 0,846191 1,024397 
-0,633745 -2,315940 -1,059972 0,215266 -2,788329 0,393956 
2,149034 -1,666373 -0,353109 1,314543 -4,192681 0,053085 
0,651269 0,228427 -0,616060 0,734832 0,964995 -0,598029 
-0,059118 -0,257812 0,135765 0,276537 -0,816420 -0,391425 
-0,482642 0,557960 -0,769238 1,031618 0,700023 0,203408 
-2,203628 -0,709174 1,780612 1,932346 -1,561655 -0,959303 
0,119665 -0,403104 -0,816882 -0,032521 0,647968 0,181324 
0,421233 -0,316198 -0,413189 -1,167046 -1,224757 -0,574540 
-0,278544 0,626428 -0,154331 -0,257786 -0,322175 0,535218 
-0,583266 0,109893 0,364824 -0,092122 -0,319890 0,189635 
0,176905 0,102132 -0,821189 -0,157651 0,047102 0,911697 
0,024183 -0,650745 0,127691 -0,135724 -0,167232 -0,189789 
-0,628700 0,452662 0,523231 -0,328369 -0,644061 -0,633421 
-3,267120 0,465249 0,387025 1,474076 -0,978054 0,453585 
-1,976439 -2,120155 0,390111 -0,432320 -1,832138 1,354141 
-0,090019 0,300237 0,226994 -0,407616 -0,764502 0,592918 
-0,707988 0,604775 -0,771576 0,118525 0,517019 0,352019 
0,146773 0,501493 0,667699 -0,978957 -0,622525 -0,417042 
3,478164 -1,092331 -0,940351 -0,080276 -1,861547 0,986093 
0,940360 1,758474 0,992141 0,849245 0,452461 -0,906390 
0,461343 0,825278 0,459522 -0,768215 -1,146182 -1,017375 
0,829966 0,305649 -0,562739 0,290579 0,421879 0,279544 
0,333854 -2,673522 -1,206106 2,103301 0,900265 0,734205 
0,006465 -0,254862 -0,451766 -0,992828 0,441060 -0,832168 
0,236530 -1,055108 0,017210 -0,846403 -0,431110 0,493046 
-0,573879 0,214581 -0,584377 -1,042616 -0,029737 0,288965 
-1,933995 0,375465 1,419047 1,513881 0,955983 -1,797158 
-0,692676 -0,201400 -0,014816 -1,051440 0,665534 -0,949304 
-0,203411 0,476086 -0,453722 -1,050505 -0,063720 -0,482891 
-0,414953 -0,670716 -0,469036 0,569060 0,212489 -0,208169 
-2,778169 1,558646 1,176609 0,690854 -2,793175 0,043944 
0,246785 -0,554316 -0,482109 -0,758087 -0,122632 0,347136 
0,283518 0,035671 -0,725845 -0,859669 0,353247 -0,222735 
0,499923 0,697823 -0,538552 0,577446 -0,158574 0,589021 
2,526716 -0,565261 0,200502 1,482672 -1,732648 0,187222 
-0,137138 -0,302166 0,445656 -0,898459 0,074513 0,734211 
-1,825366 -1,865884 -1,353362 0,327559 -1,516452 1,970200 
-0,215438 -0,119305 0,041119 -2,509911 -0,059229 0,833024 
0,355735 0,351671 -0,722936 -0,544219 -0,614259 0,013128 
-0,447513 1,962386 0,527614 1,752567 -2,550830 -0,329267 
-0,507450 -0,821801 0,245013 -0,627736 -0,415460 -1,014365 
0,903381 0,061530 -0,990894 0,757445 0,571320 0,042457 
-0,137654 -0,622281 -0,008416 -0,800702 -0,917746 -0,399541 
-0,920139 -1,061379 -0,376014 0,451397 -0,552406 -0,741647 
-0,217195 0,417660 -0,195280 -0,632879 0,638669 0,715062 
0,400776 0,098677 0,383863 -0,389881 -0,491569 0,120766 
-0,962785 -0,967066 -0,551265 -0,533182 -0,669406 -0,536277 
0,225566 0,259235 -0,348262 -0,776936 -0,360309 0,152469 
-0,033675 -0,193073 -0,514154 -0,321999 -0,222116 -1,035960 
-0,835239 -0,020238 0,462148 -0,675645 -0,026317 -0,022346 
0,515578 0,088314 0,109775 0,685339 -0,224729 -0,276334 
0,416747 -0,405861 -0,076428 -0,821540 -0,673500 0,528220 
2,685522 -2,087765 1,143086 -2,971786 -3,004960 1,132751 
0,385263 -0,770154 -0,321719 0,761290 -0,315055 -0,784629 
-0,121702 0,539603 -0,175057 0,181240 -0,602018 0,363461 
-0,158562 -0,852360 -0,180156 -0,832920 0,529905 -0,782132 
0,185474 -0,397085 -0,536390 0,252717 -1,299958 -0,878925 
-1,031858 -1,969663 -1,329006 1,871672 -1,729756 1,320474 
-1,198183 -0,317043 -0,262193 -0,967406 -1,000323 0,470559 
-0,316519 -0,151925 0,323964 -0,377358 -0,407316 -0,638442 
0,097830 -0,046147 -0,284033 -0,670036 -0,241247 0,085762 
-2,133561 -3,299697 1,684440 -2,293334 2,917676 0,929390 
0,918970 -0,495647 -0,007979 0,095935 0,582485 0,488358 
-0,204671 0,002127 -0,313782 -0,579182 0,244202 0,617129 
-0,054905 -0,150434 0,254032 -1,466225 -0,907831 0,036546 
0,853072 0,485845 0,015036 -0,661749 0,144162 -0,744124 
-0,818027 0,696647 0,172188 -0,030054 0,302364 0,607355 
0,317182 0,723523 -0,779480 -1,080029 -0,709461 -0,384643 
0,477899 0,340087 -1,114425 0,652248 0,509601 0,508752 
-0,012949 -0,415387 -0,406673 -0,551602 -0,433887 -0,961194 
1,377992 0,314687 -2,294169 1,499598 1,336894 0,910529 
0,458101 0,632891 0,235489 -0,619463 0,616483 0,803734 
-0,183975 -0,131184 -0,832082 0,645413 -0,302265 -0,587937 
2,492092 -1,518851 0,363853 -0,959030 -2,764213 -0,249788 
-0,467310 -0,757153 -0,322142 0,009961 -0,987704 -0,777607 
0,187799 -0,103929 -2,128896 1,028390 1,624685 0,605673 
0,019414 0,076757 -0,594942 0,586986 0,623149 -0,675824 
-0,492215 0,654066 0,588234 0,311352 -2,491713 -0,171404 
-3,910684 1,538015 1,487175 1,770895 0,816820 -0,096563 
0,384563 0,882632 -0,434157 0,265401 0,241894 -0,598346 
-1,504670 0,747639 0,589667 -1,135135 -0,450814 -0,767640 
0,900108 0,434199 0,337320 0,985687 -3,462755 0,412572 
-0,692819 -1,655816 1,091173 -0,728414 -0,706718 1,209409 
0,604201 -0,145365 0,157780 -0,336433 -0,497891 -0,099276 
0,122561 0,100351 0,424621 -1,027864 0,835176 0,808520 
-0,865508 0,041542 0,249882 0,521215 -1,179401 -0,484871 
0,250518 -0,564889 -0,355437 0,260132 -0,135026 -0,492823 
-0,141658 -0,327204 0,098699 0,078349 0,666513 -0,362160 
0,316263 0,853187 -0,119827 -0,947600 -0,751101 0,066223 
-0,218244 0,477846 -0,933609 0,166406 -0,962331 0,675177 
-0,574905 0,265249 0,132581 -1,097765 -0,580690 0,149672 
-2,844393 -1,793271 1,690363 -3,017593 -1,221333 0,831223 
0,560841 1,072514 0,712593 0,002751 0,407378 -0,761494 
-0,244334 -0,422878 -0,688014 -1,787718 -1,723007 0,955079 
-0,319613 0,119193 -0,799981 -0,606634 -0,241944 -0,273871 
0,394305 0,675642 0,253277 -1,321090 -1,161727 0,455360 
-0,927264 0,507286 -0,779273 -0,827948 -0,392609 -0,485644 
-1,162819 -0,360436 0,351348 -0,774608 -0,202769 -0,616527 
-2,132672 0,926852 -0,195489 2,808104 -2,723060 0,297471 
-0,880817 -0,454532 0,727797 0,208891 0,829033 0,162150 
-0,464994 -0,620815 0,732948 0,992289 0,310029 0,697183 
-2,335021 1,002883 1,316394 -0,077837 -3,139030 0,475647 
0,280089 0,485555 -0,391123 -0,529024 0,247690 -0,153672 
1,075469 -0,447513 -1,265240 0,031150 0,111172 -0,305854 
-0,336445 0,697507 -0,693869 -0,759761 0,476999 0,189432 
-1,042450 0,512383 0,246206 0,345429 0,680546 0,311836 
-0,197057 0,547861 0,515641 0,104428 0,367483 -0,973650 
-0,619139 -0,714488 -0,800007 -0,668525 -0,261104 0,428575 
-0,652362 -0,075702 -0,416098 -0,606052 -0,120581 0,669747 
0,260552 -0,362091 -0,093825 -0,238969 0,298605 -0,463387 
-0,339160 -0,241347 -0,355181 -0,067155 -0,255681 0,662257 
-0,216045 0,616624 -0,432793 -0,744115 -0,047641 0,529914 
0,156873 -0,366860 -0,952638 0,150457 -0,765057 -0,969243 
1,272774 0,478527 -2,785961 1,311718 0,561205 0,859619 
0,191978 0,215281 0,562802 0,087560 -1,021941 -0,850407 
-1,118311 -1,629358 0,239224 0,189249 -1,687284 0,112312 
0,251944 0,311198 -1,971066 0,729896 -0,279046 0,224266 
-0,876567 -0,933496 0,155029 -0,614893 -0,335393 -0,316261 
-0,063795 -0,232786 0,746524 0,530126 -0,140696 -0,845744 
0,224764 0,239924 -0,739376 0,504666 0,680926 -0,355973 
1,068044 0,572509 -0,536445 0,899624 0,790925 0,654699 
0,232871 -0,334026 -0,781699 -0,303059 -0,308001 -0,218681 
0,297724 0,844025 -0,405163 0,778048 0,216363 -0,693547 
-0,667125 0,142234 0,215574 -0,806278 0,436924 0,033520 
0,806364 -0,385601 -0,087745 -0,233980 0,263915 -0,373120 
-3,283864 -2,787865 1,344014 -2,202061 2,278414 1,082731 
-3,661270 0,777471 1,604247 0,218572 -0,229336 0,570158 
1,553413 -0,956625 -0,940720 -0,295954 -1,724540 0,698098 
-0,452579 -0,790279 -0,458933 -0,743030 0,134943 0,179935 
-2,868685 1,770126 1,078139 -0,862076 -4,253145 0,787628 
0,076355 -0,215724 -0,973843 -1,107122 0,264271 0,264495 
0,562372 -0,941435 -0,487340 -1,020023 -0,906079 -0,892413 
0,477982 -0,791713 0,394997 -0,998857 0,004177 0,106269 
1,731573 1,739698 -0,159541 0,659822 -3,403548 0,163443 
-0,153992 -0,275571 -0,925558 1,123563 -2,321177 0,024799 
0,784660 -0,101746 0,359761 0,620525 0,867972 -0,002574 
0,725303 -2,203788 -0,412934 0,865576 -2,386835 0,142389 
-0,744707 0,362076 -0,459432 -1,003446 -1,131925 0,262002 
0,688450 0,638950 0,259146 0,153782 -0,022773 -0,481358 
-1,820236 -1,466727 0,929948 2,034261 -1,961142 0,961787 
0,482459 -1,764322 -1,550301 1,535458 1,149294 0,291056 
0,906615 0,462890 -0,107549 1,031057 1,381657 1,145805 
0,620465 -0,978888 -0,410715 -0,710386 0,734340 -0,660825 
-2,175879 0,771190 1,037621 2,987641 -2,840505 -0,943602 
-1,753361 0,020321 0,886411 0,674062 -2,135872 0,178799 
-0,851455 -0,422559 -0,386065 -0,669156 -0,647004 0,471685 
-0,439523 -0,655229 0,087975 -0,699832 0,106760 0,819023 
0,348623 0,007664 -1,259323 0,914455 0,158899 0,082450 
1,932696 1,386091 -2,547286 1,728557 -0,271928 0,957317 
-0,779561 -0,153109 0,938259 0,054824 -0,141111 -0,100811 
0,313937 0,837793 -0,183557 -0,147402 -1,759776 -0,137061 
0,329897 -0,855763 0,112436 0,117535 -0,033605 0,277750 
-0,010082 -0,704810 -0,241510 -1,044211 -0,317745 -0,651003 
0,682660 0,020864 0,335783 -0,580984 -0,329634 -0,119381 
0,587497 0,936924 -0,850030 0,976731 0,344996 0,936422 
0,574106 0,900219 -0,203590 -0,562914 0,636146 0,135599 
-0,229413 0,051762 -0,373860 0,334054 0,312123 -0,801356 
-3,581318 0,763477 1,695244 1,635311 1,308017 -1,244638 
-0,078088 -0,674345 -0,847881 -0,407800 -0,046471 0,804125 
0,210148 -0,832991 -0,653680 -0,730929 0,077314 0,273153 
-1,014451 -1,024171 -0,456167 -0,926356 -0,148741 -0,222383 
1,688349 1,353584 -1,882729 1,917702 -2,237115 0,925045 
0,532224 -0,697803 -0,537931 -0,214627 0,143647 0,645147 
-3,331684 -0,614913 1,424704 -3,390291 2,362994 0,921699 
-0,244559 0,101720 -0,467552 -0,343795 -0,534332 -0,922472 
-0,632430 -0,276899 -0,520125 -0,207752 -1,219201 -0,440789 
-0,659026 -0,537302 0,318827 -0,430711 -0,736144 0,829496 
-0,734282 -1,864248 0,428189 -2,166775 -2,862302 1,654925 
-0,682579 0,649636 -0,432861 -0,667085 -0,963542 0,275001 
-0,445282 0,299185 -0,827588 0,170350 0,275203 0,813744 
-3,693230 0,518309 1,285908 0,324485 -0,521113 0,442485 
1,300079 1,776462 -0,173154 0,952088 -4,066869 0,437378 
2,054377 -0,512070 -0,603267 -1,704972 -3,613205 1,769348 
-0,600539 -0,621664 0,575955 0,208980 -0,990655 0,415552 
-0,991266 0,023643 0,050489 -0,324297 -0,175227 -0,187467 
-1,562192 0,232789 0,324810 0,587040 0,287829 -0,915924 
-0,232715 -0,118971 -0,672248 -1,063429 -0,891901 -0,499684 
0,403772 0,860315 -0,029030 -0,941801 -0,613265 -0,412133 
0,275592 -0,253875 -0,899915 0,103347 0,175503 -0,794071 
-2,242012 0,736204 0,767770 -0,098630 0,253296 0,366134 
-0,315796 -0,756437 0,446286 -0,660660 -0,523744 -0,218348 
1,293300 0,252932 -0,168670 1,512147 -0,164171 -1,736638 
-1,835504 0,537129 0,670951 2,906806 -2,743162 -1,016900 
-0,356790 -0,376817 -0,107920 -0,770940 0,129160 -0,181187 
-1,291069 -0,554901 -0,962955 -0,655126 -1,153991 -0,487638 
0,188561 0,469241 0,326808 0,412559 -0,027748 0,014129 
0,148198 -1,005014 -0,587727 -0,518760 -0,503668 -0,259328 
-0,643532 -0,836739 -0,475794 -0,754352 -1,023393 -1,012596 
0,389174 0,104809 -0,680344 -0,124781 0,137761 -0,402655 
0,304054 -0,016765 -0,627585 0,044436 -1,825169 0,503137 
-0,338674 0,623767 -0,404082 0,409557 -0,037840 0,018604 
-0,832647 0,627242 -0,636073 0,189205 -0,450681 -0,487812 
0,120072 -0,782084 -0,355382 -0,146447 -0,505908 -1,009701 
-2,489092 1,891223 1,235952 1,488686 0,029546 -0,313392 
-3,089174 0,361876 0,477514 1,318593 -0,910966 0,766123 
-2,965117 -1,397723 1,128948 1,932131 2,100195 -1,057994 
0,819586 -0,918743 -0,390787 -0,707970 0,491680 0,226888 
-0,703807 -1,223260 -0,348590 0,326738 -0,921021 1,345665 
0,586881 0,377552 -0,672655 -0,646863 -1,138426 0,043456 
0,090257 -1,169098 0,003827 -0,276181 0,614705 -0,516576 
0,373908 -1,134187 -0,555895 -0,857281 0,320123 0,178387 
0,429175 0,870224 -0,491063 0,010097 0,250431 0,786986 
-0,952834 -0,632161 -0,077782 -0,296632 -0,799993 -0,700682 
-0,678967 -1,048587 -0,900004 0,106391 0,267984 -0,113646 
-4,135144 0,857216 1,271682 1,168374 0,613371 0,280151 
-0,250386 -2,627506 0,968038 -0,020047 0,618080 0,229480 
-0,283071 0,174908 -0,175993 -0,611865 -0,759902 -0,274867 
-0,595817 -1,095471 -0,693770 0,446306 0,206058 0,653165 
-1,528301 0,421558 -0,381639 -0,484960 0,104022 0,800756 
0,134047 -0,633556 0,325256 -0,660325 -0,324852 0,396299 
-0,800273 -0,498313 0,351751 0,718099 0,164525 -0,431134 
0,864524 -0,635027 0,237318 -1,067044 0,625301 -0,452362 
-0,017976 0,585079 -0,436713 -0,757388 -0,494015 0,573210 
-0,828847 2,001084 1,635662 1,811184 0,707892 -0,554598 
-0,922992 -0,868292 -0,108454 0,491282 -0,189824 -0,933806 
-1,073147 -2,007041 -0,621735 -0,373758 -0,805619 1,997189 
0,114246 0,681519 -0,335341 -0,644369 -0,434276 0,036387 
-2,355183 0,714272 0,727113 0,188535 0,525699 0,078916 
-2,703013 1,965629 0,501914 1,166255 -3,424357 1,105948 
0,337329 -0,179426 -0,437910 -0,319707 -0,497978 -0,462036 
0,500099 -0,191634 0,615095 -4,087725 -0,257943 0,487444 
0,268761 -0,178786 -0,347442 -0,077408 -0,506736 -0,412767 
-4,734808 0,704677 1,459180 0,088567 1,758315 0,430790 
-0,731241 -1,546830 0,498367 -0,314971 -2,740657 1,056759 
0,071204 -1,382276 -0,285460 0,166778 -0,001750 -0,007091 
-0,058867 1,781547 1,659849 1,013121 0,748694 -1,020516 
-0,309406 -0,555645 0,674840 -1,160560 -0,498597 -0,409627 
0,237067 0,492843 -0,613816 0,117471 -0,431199 0,392120 
0,034560 -0,012185 0,055252 0,532338 0,309812 -0,702353 
-0,992406 0,603889 0,746692 -0,570904 0,396216 -0,242668 
1,732502 -2,440216 -0,732207 1,087642 -2,350258 0,245519 
-0,549325 0,131931 -0,511252 -1,052757 -1,249862 -0,721445 
-0,945606 -0,664094 -0,748663 -0,363020 -0,764163 -0,289992 
-2,347123 0,909873 1,359996 -0,586838 0,879011 1,063248 
0,087164 0,506003 -0,035762 0,084851 0,341824 -0,788165 
-0,682735 -0,885446 -0,322583 0,561007 0,081234 -0,364576 
-0,765067 0,854472 -0,204752 0,602980 0,607196 0,324147 
0,664063 -2,748126 -0,569529 1,614133 -2,827994 0,769179 
0,121789 -0,982320 -0,719965 -0,089166 0,491052 -0,137681 
0,453267 0,087728 0,531400 0,054765 0,015190 0,065485 
0,269404 -1,206023 0,834296 0,640975 0,190208 0,807596 
1,354713 0,856808 -1,694984 0,703569 -0,545586 0,512813 
-0,579435 -0,011384 0,113395 0,135101 -0,713729 -0,533147 
0,255091 -0,111484 0,198481 0,316528 -0,854161 -1,131246 
0,624142 -1,400552 -1,208328 1,410175 0,626003 0,354511 
-0,887690 -0,689698 -0,408633 -1,183162 0,155359 0,479950 
-2,226287 -1,201204 1,015351 0,873108 -2,166600 -0,303052 
-1,038981 0,182967 0,667681 -0,667180 0,378271 -0,442955 
-0,134939 -0,231848 0,611029 -1,067852 0,993387 0,544842 
-0,000574 0,739798 -0,582059 -0,642801 -0,500446 -0,871244 
-0,820358 0,445031 -0,817112 -0,985158 0,256822 -0,359880 
-0,145917 -0,613641 0,477607 -0,653281 -0,114817 0,245223 
0,142636 -0,365293 0,191242 -0,738620 -0,567396 0,302916 
0,624999 -1,012154 -0,429500 0,359210 0,118437 0,899106 
-0,907527 -0,184282 0,860075 -2,797487 0,404593 0,168443 
-0,465689 0,224549 -0,709822 -0,606186 -0,666735 0,637872 
0,308188 -0,875621 -0,628591 -0,622601 -0,253407 0,489533 
-0,438235 0,104572 -0,614180 -0,620156 -0,167614 0,057219 
0,647334 0,243321 -0,685143 0,509560 0,531375 0,762774 
-0,485844 -1,014291 0,237355 0,075936 0,586665 -0,004068 
0,706799 0,160986 0,547816 -0,806106 -0,622311 0,114954 
0,146379 -0,871623 0,646365 0,443772 -0,011398 0,458297 
0,916311 -2,689892 -0,360234 1,698139 -2,022408 0,521080 
-4,130993 0,860234 0,842831 0,690532 0,863000 0,830124 
0,522104 -0,713955 -0,484778 -1,208520 -0,639878 0,657889 
0,488592 -0,916995 -0,599808 -0,868819 -1,841293 -0,083511 
-0,933447 -0,232099 -0,188318 -0,411342 -0,043114 -0,202325 
-2,494146 0,474973 1,576269 1,447895 1,413892 -1,308539 
-1,376538 -2,005223 1,808485 -1,639514 -2,437806 0,623414 
-0,626278 0,041174 0,376609 -0,512647 -0,272510 -0,428290 
0,719287 1,163200 0,378150 -0,150884 0,062860 -1,052316 
-0,785821 0,153204 0,296648 -0,442897 -0,427883 -0,843685 
0,813341 -3,664767 0,372754 1,394693 0,373874 -0,242809 
1,267158 0,989762 -1,932116 1,558360 -0,662049 0,700985 
-0,026196 0,742967 -0,452590 -0,022510 -0,629433 0,397233 
-0,377290 -0,310417 -0,352736 0,386014 -0,241183 0,636267 
-0,503257 -0,437732 0,294634 -1,113717 -0,124987 0,451698 
-1,216643 0,638194 -0,371551 0,796712 0,434212 -0,992241 
-3,993246 -2,243496 -1,223031 2,544425 2,929299 0,845844 
-0,616028 -0,502287 -0,601418 1,101203 -0,880083 0,865012 
-2,103634 0,406326 0,031806 2,716781 -2,224200 0,863956 
-0,224653 -0,353942 -0,265119 0,278183 0,345385 -0,321016 
0,352810 0,612448 -1,007821 0,712717 -0,199408 -0,843053 
-0,090369 -0,977281 -0,858909 -0,650101 -0,063740 -0,068075 
-2,236312 1,979932 1,452637 -0,914293 -4,029584 0,771917 
-0,824202 -0,763011 -0,974293 -0,639550 -0,381702 -0,090513 
1,113383 0,442682 -0,997212 0,190649 0,993139 0,363224 
0,803405 0,830488 -0,219657 -0,172216 -2,730912 0,643779 
-3,532342 0,234884 1,590090 0,302264 1,254740 -0,290431 
0,185405 -3,464410 -0,511921 1,908389 1,578652 0,556957 
0,450607 -2,094025 -2,397955 1,935999 1,237686 0,932853 
-0,448282 0,175397 -0,469287 0,006558 0,550704 0,247048 
0,226153 -2,596367 -0,170235 0,447679 0,332682 0,846565 
0,914963 0,378282 0,273300 -0,501083 -0,004547 -0,140908 
-0,014330 -0,459365 0,287537 -0,397986 -0,222181 0,389802 
-0,258214 0,678600 -0,058417 -0,904729 0,245925 0,380898 
0,511439 0,149191 0,409049 0,638428 -0,624390 -0,989831 
1,589862 -1,848406 1,214182 1,787516 -2,702667 -1,308531 
-0,539766 0,490831 0,192410 -0,712469 -0,114299 -0,025274 
0,599568 -0,223916 -0,005831 -0,194688 -0,012956 -0,304075 
-0,049206 0,573188 -0,571027 -0,359127 -1,249597 -0,617809 
-1,919582 1,706319 0,361633 0,491055 -2,745395 0,629238 
-0,130382 -1,363348 -0,710307 1,013419 0,353039 -0,270259 
0,823158 0,251399 -1,868345 0,427784 1,389187 0,638207 
-0,080844 -0,636793 -0,919207 0,492086 0,082392 -0,888277 
-3,924567 -0,204044 1,311339 0,898246 1,386498 -0,122709 
-0,543288 -0,253497 0,483028 0,442539 0,481039 -0,327254 
-1,385201 -1,451019 -0,222027 -0,239330 -1,257871 2,060708 
1,454268 -1,014547 -0,715702 1,342417 1,272391 -0,593903 
-0,257276 -0,034872 0,363803 -0,827443 -0,970314 -0,276162 
-0,740262 -0,808244 0,745603 -0,723798 -0,614694 -0,695364 
-0,715358 -0,236247 -0,169404 -0,412231 -0,177611 0,426387 
-1,002822 0,290987 0,555649 -0,192412 0,217019 0,185931 
-0,349597 0,113478 0,348063 0,111270 0,561371 -0,598149 
-0,116607 0,149960 0,339649 0,208359 -0,992105 -0,726347 
-0,171059 -1,120298 -1,011085 0,240696 -0,211019 -1,031848 
-1,563236 -1,752779 1,237417 -0,518542 -1,973355 -0,015207 
0,370493 -0,802925 0,141537 -0,753677 0,190603 0,412187 
0,006946 -0,750161 -0,553556 -0,458984 0,429650 0,645203 
-1,154919 -0,437206 0,514209 -0,478806 0,079287 0,195257 
1,266218 0,109077 -1,861799 0,855687 1,569044 0,650461 
0,359762 0,870949 0,481646 -0,575680 -0,562282 -0,836860 
2,933166 -1,737253 -0,598451 1,738857 -1,401345 0,147920 
-0,207546 0,671371 -0,399822 -1,005953 -0,063542 -0,473626 
-0,509279 0,338492 -0,466534 -0,149121 -0,457240 0,904333 
0,125191 -0,588051 0,098913 -0,284740 0,259238 -0,251531 
0,359162 -0,056675 0,280310 0,307406 -0,047891 -0,721713 
0,349222 1,549883 -0,665973 3,402142 -1,906469 -0,183318 
-2,952886 -3,634568 1,224584 0,233672 2,024554 0,877011 
-0,792049 0,123548 -0,015759 -0,141875 -0,149610 0,041049 
-0,176636 -0,702768 0,384157 -0,769074 -1,060934 -0,637896 
-2,937532 -3,039066 1,701191 -2,470561 -1,327723 0,709029 
0,986221 0,878436 1,199233 0,595525 0,381928 0,033610 
0,508974 0,641179 -0,288564 -0,964861 -0,139031 -0,029220 
-0,408990 -1,026226 -0,209118 -1,037910 0,444105 -0,432384 
0,900500 1,321691 0,462017 0,858521 -3,410080 0,130273 
-0,872911 -0,986871 -0,331061 -0,516925 -1,680820 1,357780 
-0,109546 -0,698579 0,350118 0,297207 -0,768319 -0,519000 
0,287513 -0,351631 0,218750 -0,589013 -0,051731 0,678104 
-0,726725 0,337232 -0,650732 -1,183228 -0,570134 0,147218 
-0,608301 0,775073 -0,212797 -0,413604 -1,033994 -0,917928 
-0,077915 0,293966 -0,404600 -1,069418 -1,979000 0,643283 
-0,353281 0,128095 -0,015979 -0,539926 -0,041388 0,228133 
-3,189050 2,063605 0,319884 3,011722 -3,027300 -0,471687 
0,442387 0,657219 -0,495023 -0,969803 -1,254441 -0,184121 
0,084794 -0,532960 0,117735 0,738734 -0,655858 -0,275603 
-3,266052 1,147885 0,059206 1,811375 -2,413354 1,240477 
-0,195273 0,323382 -0,582172 -0,463964 -0,437044 0,070121 
0,667603 0,197290 -0,059207 -0,902874 -0,373278 0,075090 
0,694382 0,851437 -0,238401 0,131268 -0,941414 -0,511305 
-1,623577 0,095599 -0,533328 0,457573 -2,814004 1,121740 
-2,533580 -2,799177 1,718234 -2,928476 -2,068723 1,549975 
0,220958 -1,149335 -0,167189 -0,597330 -0,511045 -0,432736 
-0,392924 -0,453195 0,230925 -0,749737 0,280903 -0,309392 
-0,725959 -1,122449 -0,381210 -0,393916 0,662049 -0,470176 
-0,586052 -1,196734 0,161054 -0,224339 -0,483073 0,216415 
-1,096160 0,292770 0,477341 -1,128896 -0,368188 -0,638451 
-3,787508 0,600089 0,681715 0,967934 0,136166 0,225155 
0,725450 -0,402718 -0,066715 -1,151585 0,600543 -0,540232 
0,836643 -2,556845 -1,031320 0,948457 1,307397 0,902161 
-0,580935 0,096339 -0,141115 1,818757 -0,269983 0,683919 
0,667616 -0,810590 -0,621584 -0,183100 -0,055797 -0,252906 
-0,207199 -0,692354 0,156717 -0,916203 -0,637963 -0,815357 
2,384144 2,403536 -1,172415 2,998801 -1,733480 0,008493 
-1,229018 -1,025896 0,837558 0,016247 -1,440530 1,081490 
-0,105930 -1,214016 -0,285056 -0,738157 -0,882213 -0,083875 
0,380119 -1,041358 -0,195996 -0,871665 -0,920043 -0,650000 
-0,769506 -2,391042 -0,831043 -0,599284 -1,699897 2,062610 
0,077446 -2,180250 -0,123318 1,289423 0,632278 0,281636 
-1,330154 0,129738 0,861145 0,243289 0,140200 -0,145893 
-1,920640 1,594599 0,713417 2,729182 -2,453299 -0,323863 
-0,483415 0,385410 0,086463 0,222559 -0,537387 -0,661753 
-0,011935 -0,392451 0,521904 -0,115193 0,056308 0,045936 
-4,726551 0,822097 1,178335 0,228840 0,663458 0,109927 
-0,163267 -0,141722 -0,259412 -0,212757 -0,228632 -0,198737 
-0,728258 -0,679306 -0,971984 -0,522944 -0,253494 -0,831786 
0,105837 0,408226 -0,145275 -0,923395 -0,707810 0,519696 
0,603457 -0,181516 0,842055 -0,502905 0,685529 -1,001440 
-0,182027 -0,695535 -0,513441 0,517677 0,390986 0,374992 
-1,790890 0,757942 0,397645 0,577724 0,631232 0,780879 
-0,141996 -0,198183 0,130535 -0,605172 0,175703 0,445804 
0,190362 -0,857720 -0,652980 -0,563230 -0,664084 -0,561016 
-0,560720 -0,225843 -0,099298 0,158615 -0,264627 -0,725691 
0,571438 -0,614835 -0,372078 -0,519648 0,047398 -0,023509 
0,305978 -1,509666 0,476843 0,194831 0,115258 -0,673042 
-0,822486 -1,072190 0,314650 -0,866699 -1,745273 1,443594 
0,548738 0,603559 0,909916 -1,097834 -0,586885 -0,273851 
0,136844 0,244362 -0,721265 0,775753 0,053543 -0,802670 
0,097479 -0,373220 0,625150 -0,904209 0,901943 0,638475 
-0,726720 -0,930178 0,267427 -1,140741 -1,783215 0,022833 
-0,233713 -0,315906 -0,060643 0,255113 -0,638784 -0,294669 
0,516348 0,183303 -0,412499 -0,023121 -0,803216 -0,420954 
-0,540888 0,059036 -0,184253 -1,131028 0,080955 0,633206 
0,785978 0,977425 0,041474 1,178172 -0,201176 -1,002388 
0,387554 1,086214 0,948528 -0,099917 0,464311 -1,004171 
-0,277784 0,652560 0,558922 -0,031030 -0,317084 0,248741 
-1,791668 -2,176904 0,238456 0,861178 -1,314239 0,086851 
-0,516501 0,098814 -0,016268 -0,306634 -0,076528 0,916828 
-0,644677 -0,801773 -0,203990 0,236813 -0,683553 -0,346784 
-0,073592 -3,918799 0,577090 0,817364 -0,261411 -0,326600 
0,368030 -0,855825 -1,154051 -0,987049 -0,765251 -0,361477 
-2,624807 -2,867862 1,184987 -2,707863 -2,131081 0,906444 
0,366390 -0,450842 0,261382 0,703604 0,560384 -0,699044 
-2,216917 -2,043415 0,340286 -0,717692 -2,567540 1,373784 
-1,861219 0,613911 0,377019 0,286430 -3,141441 1,586664 
-0,011349 -0,966368 -0,548020 -0,018051 -0,330559 0,032088 
0,066732 0,768718 1,001042 -0,303310 -0,651942 -0,037887 
0,218659 0,274337 -0,067445 -0,500568 0,385166 0,708104 
2,475897 -0,124804 0,671256 1,311905 -3,041648 -0,081126 
0,844918 -1,186282 -2,355119 1,746182 1,713796 0,767123 
-0,687890 -1,022895 -0,642622 0,957401 -0,032710 0,178960 
0,409827 0,844654 -0,050824 0,006995 0,184960 0,150733 
-3,232908 1,338972 1,571823 1,800161 -1,982530 -0,967400 
-2,052094 1,683722 -0,108014 2,229425 -3,523883 0,852746 
-0,572376 -0,041641 -0,954163 -0,563628 -0,296964 0,643706 
-0,503475 -0,435083 0,176675 -0,407516 0,316239 0,487440 
-4,220653 1,311115 1,459784 0,530886 1,373436 1,060114 
0,437273 0,334459 -0,043435 -1,088915 -1,048525 -0,202797 
0,569390 0,371411 -0,772505 0,334582 0,395500 -0,520606 
-1,010055 0,259525 -0,395575 -0,259953 0,370496 -0,770024 
1,943816 2,584259 0,361721 1,334498 -2,586235 -0,934293 
0,709999 0,324671 -0,332673 0,403655 0,357191 0,476314 
-0,278255 0,440469 0,637392 0,007021 -0,639949 -0,098416 
-0,265152 0,608227 0,675548 -0,063469 0,535860 -1,004560 
-1,521697 0,405695 0,692210 0,641085 0,064498 -0,678412 
-3,411803 0,516053 0,618252 1,987145 -0,170343 -0,622304 
0,130361 0,201559 -0,302838 0,533649 0,429846 -0,139275 
-0,377198 0,895553 0,472686 -0,118568 0,442841 0,911033 
0,883535 -1,945224 -0,980918 -1,607494 -3,059292 1,674944 
-4,084829 0,731241 0,213451 1,172847 0,545348 0,328596 
-0,703462 0,656229 -0,015176 0,244520 0,554392 -0,480948 
0,048300 0,341864 0,213773 0,102083 0,225073 -0,394864 
0,187407 -0,028188 -0,296443 -0,777490 -1,292077 -0,680978 
-1,054251 0,429000 -0,785891 -0,957728 0,627770 -0,258113 
1,139631 0,570205 -1,696558 -0,258729 0,761322 0,799167 
0,324716 0,036755 -0,696609 -0,678675 -0,680501 0,911407 
-1,711543 -0,739639 1,039561 1,450609 -1,545918 -0,070036 
-0,488813 0,180751 -0,059407 -0,992046 0,032191 0,322933 
0,066574 0,294928 -0,269658 -0,058659 0,114842 -0,409742 
0,682072 -0,449733 -1,755758 0,973089 -0,460341 -1,032384 
-2,208575 -1,899479 -1,259570 3,072418 -1,024628 0,892467 
0,488936 0,346643 -0,535656 -0,025243 -0,292094 -0,281942 
0,237223 0,146171 -0,712557 -1,002791 0,549664 0,257414 
0,093764 0,022484 -1,085348 -0,554490 -0,268076 0,700062 
1,070294 -1,034559 0,255448 0,971819 0,871535 -0,646928 
1,414147 -0,359864 0,459426 1,275501 -0,674026 0,118684 
-0,156608 0,707804 0,720440 -0,402807 -0,797261 0,606208 
-2,601433 0,563627 0,289407 0,039744 -3,232882 0,745742 
0,155882 -0,540208 0,053938 0,352003 -0,462173 -0,413524 
-0,398304 -0,704953 -0,303815 -1,135088 -0,803797 -0,810285 
-0,901139 0,693891 0,369984 -0,981286 -0,130241 -0,457314 
-2,476112 0,374488 1,671424 1,473732 1,647572 -1,050682 
0,560868 0,422876 0,297261 -0,476710 -0,396848 -1,183183 
0,100909 -0,052982 -0,049873 0,559199 -0,832567 -0,172046 
1,251985 0,051735 0,483753 1,469931 -0,757600 0,530536 
-0,506973 0,008929 0,278252 -0,394093 -0,451886 0,145344 
0,349120 0,336103 -1,534761 0,968092 1,507882 0,476889 
0,731939 -0,264862 -0,657294 -0,450784 -0,037512 -0,261968 
-1,698546 1,162287 1,256524 -2,403124 -3,969176 0,990586 
0,156611 -0,232009 -0,104277 -1,073565 0,019998 0,142252 
0,235794 -0,384189 -0,549734 -0,041288 0,456861 -0,057966 
0,519788 0,177505 -1,354045 0,537343 0,996584 0,804752 
0,757417 -0,336325 -0,955125 -0,002836 0,096074 0,218380 
-4,155260 1,000336 1,381722 -0,171834 1,516010 1,057226 
-0,614735 0,316905 -0,084543 -0,834865 -0,796346 -0,661899 
-0,549073 -1,432373 -1,832742 1,023824 -2,057370 1,825869 
-1,789912 0,854498 0,808769 0,213389 0,121586 0,361994 
-0,865619 0,712160 -0,038188 -0,261173 -0,089632 0,145464 
0,787721 -2,033643 -0,088379 -0,386421 -3,443167 1,331794 
0,203316 -0,174273 -0,453420 0,704900 0,116171 -0,577144 
0,882134 -1,840043 0,976928 2,060834 0,932357 -1,883957 
0,667374 0,664568 -0,044692 -0,784825 -0,388029 -0,778315 
0,223925 -2,403627 1,445354 -3,165617 0,165213 0,738638 
-2,050194 0,152897 1,502625 -1,596128 -3,700267 0,153231 
0,156918 -0,076396 -0,238184 -1,123903 -0,567797 -0,203544 
-0,074783 -0,842359 0,070366 -0,660079 0,454438 -0,392167 
2,745111 -1,950278 -2,109728 1,376223 -2,953004 1,275747 
-0,136501 -1,005778 -1,036722 0,540280 1,355071 0,785316 
0,434639 1,005179 -0,696878 0,604595 -1,291768 0,442238 
-0,475476 -0,030948 0,533525 -0,264409 -0,355164 0,252762 
-0,791804 0,679673 -0,553771 0,393588 0,144814 -0,085518 
-1,861236 -2,432039 1,631018 -1,945734 -2,765372 -0,136102 
0,901342 0,105330 -0,034438 0,352716 0,580805 0,523681 
-2,829107 -2,884758 1,831090 -1,722265 2,663279 1,172868 
-0,778840 0,573148 -0,766897 -0,699433 -1,055372 0,372959 
-0,583523 -0,658766 1,866942 1,959618 -1,719760 -0,338120 
0,060580 0,334228 -0,567843 -0,931660 -0,108320 -0,180297 
0,081028 -0,930352 -0,818251 -0,461402 -0,985955 -0,574241 
-4,396081 0,130256 1,458253 -0,252221 1,572011 0,418216 
-3,401097 -0,846551 -0,118038 1,517727 0,753073 0,613439 
-2,734879 1,746894 0,378390 2,317802 -2,468857 0,562540 
0,204169 1,331195 0,679216 0,465568 -2,646918 -0,127833 
-0,544953 0,312851 0,578980 -1,198868 -0,893314 0,101901 
0,268707 -0,017158 -0,018987 0,052529 0,034302 -0,469483 
-4,579622 0,644510 1,255206 0,544001 1,081453 0,527089 
0,163054 -0,461372 -0,990591 -0,097721 0,115839 0,266658 
-1,891861 0,707586 -0,826880 2,782334 -0,960147 1,162129 
-0,443628 0,333728 0,532249 -0,386626 -0,781616 -0,698717 
0,638632 0,267478 1,019265 1,373195 0,383890 -1,756144 
0,217749 -0,162523 -0,240503 -0,718831 -0,428847 -0,326044 
-2,079186 1,772767 1,692727 1,688471 -0,005299 0,057080 
-2,295565 -2,635283 2,009539 -1,190817 1,183708 1,082507 
-0,882040 -0,788568 -0,990497 -0,664544 0,418416 0,668406 
0,180039 -0,847738 -0,078293 -0,978617 -1,261209 -0,236636 
0,157991 -0,076920 -0,146563 -0,635722 0,426922 0,315963 
0,319210 0,353044 0,663474 -0,669687 -0,431704 -1,131171 
0,779134 -0,278954 0,006351 0,252900 -0,257831 -0,785437 
0,574834 -1,066693 0,495510 2,727929 -1,162902 -0,181148 
0,054159 0,374130 -0,428113 -0,942997 0,617325 0,776659 
-1,733262 -0,862774 -0,267001 -0,100359 0,023480 0,361109 
1,278192 0,532436 -1,580205 0,125842 1,299686 0,814557 
0,628057 0,736662 -0,295143 -1,013363 -0,063564 0,690256 
-0,209632 0,317050 0,156065 -0,985844 0,369527 0,361899 
1,256532 0,541783 -1,578113 -0,469584 0,408973 0,925963 
-3,012641 0,415821 1,495760 1,064771 -0,124759 0,920121 
-0,964602 -0,030914 -0,537244 -0,593309 -0,149826 -0,150791 
0,486862 -1,217140 -0,770199 -1,142475 0,258840 -0,133184 
0,737085 -0,745902 -0,326329 -0,887930 -0,636191 0,210811 
0,806856 0,504545 0,769786 0,768644 0,496038 -1,448236 
-0,021239 -0,235876 0,391144 0,259509 0,257656 -0,834921 
-0,055875 -0,274955 -0,141139 0,449467 0,147136 0,302267 
-0,166946 -1,004330 0,483928 -0,191426 0,226559 0,079112 
-2,080995 -2,370655 2,014194 -2,599596 -3,455649 1,419470 
-0,576634 -0,235570 0,076882 0,154413 -0,130576 -0,199560 
-3,462690 0,979933 0,882781 0,629707 -0,483560 0,174317 
-0,991653 -0,894760 -0,559157 -0,844468 0,146442 0,268526 
0,107213 0,166969 -0,013426 -0,433125 -0,519316 0,366827 
-2,054202 -2,429262 1,434061 -1,515294 -2,239923 1,763014 
2,266207 -2,148882 -1,823569 2,111447 -2,423884 1,137347 
-0,912166 -1,090130 -0,219997 2,703527 2,199947 0,301286 
-0,176068 -0,303306 1,359078 -0,885366 0,849482 0,565399 
-0,552799 -0,276261 -0,891358 0,000769 -0,473723 0,257926 
-0,020498 0,200096 -0,942402 -1,164442 0,141049 0,097743 
0,209081 -0,521443 0,366082 0,389120 0,158936 0,314543 
0,301926 -0,079772 0,732285 -2,227741 0,577906 1,114443 
-0,527020 0,387834 -0,500678 -0,289432 -0,023329 0,738070 
0,764484 -0,031445 -1,181317 0,965912 1,292396 0,008828 
-0,228117 0,098000 -0,638810 -1,083023 0,114018 -0,813734 
-0,356347 0,632161 0,089844 -0,373943 -0,561335 0,292808 
-0,201476 -0,636706 -0,046209 0,772322 -0,366527 -0,701629 
1,050949 0,351866 0,486596 0,705472 0,578131 -1,544009 
-3,233569 2,143504 0,761248 3,045930 -1,996708 -0,248402 
-0,947210 0,594649 0,584147 -0,173377 0,457667 0,461352 
0,587199 -0,281725 0,009829 -1,188967 -0,235503 -0,539961 
-2,405809 1,043663 0,329828 1,703556 -1,995431 1,011804 
-0,506548 -0,709300 -0,164613 -0,040233 -0,956717 0,738185 
0,159580 0,061384 -0,446378 -0,838740 -0,172160 -0,771655 
-3,211771 0,865146 0,941459 0,437655 0,432388 0,626720 
-1,325839 -0,351999 0,301050 -0,555517 -0,849760 -0,157472 
0,474643 -0,988647 -0,361439 -1,189991 -1,174058 0,106913 
-0,834365 -0,742358 -0,436864 0,073640 -0,668517 -0,952263 
0,100744 0,173482 -1,009557 -0,760651 0,437555 -0,398380 
0,396163 -0,077426 0,207073 -0,053295 0,191594 0,260942 
-0,340782 -0,083675 -0,594474 -0,732047 -1,310879 -1,036217 
-0,531109 -0,872959 -0,167929 0,231595 -0,757105 0,655548 
-0,689056 -0,756485 0,318483 0,040388 0,248600 -0,135977 
-4,504568 0,003007 1,339502 0,850692 1,275034 0,103960 
0,441306 0,135968 -1,422541 0,614816 1,739370 0,642848 
-1,783464 -0,827459 0,869939 1,068706 -1,989936 -0,261530 
-0,736860 -0,666109 0,301756 -0,719719 0,065744 -1,030607 
-0,887871 -0,736533 0,758093 -0,987232 0,708398 -0,362611 
0,522421 0,038113 0,444748 -0,955910 -0,040468 0,731256 
0,055698 0,667350 0,580464 0,015721 -3,196701 0,132369 
-0,156028 -0,656654 0,663375 -0,122468 0,122797 0,141754 
0,119357 0,519164 -0,003980 -0,909577 0,563369 -0,473886 
0,632854 -0,887836 0,907432 -0,489677 0,351920 -0,798663 
-2,392249 1,086102 1,197724 -2,041074 -3,663092 0,837719 
-0,856847 0,749669 -0,004773 0,331581 -3,144561 1,044594 
-2,237974 -0,868005 1,390010 3,081225 -2,215021 -0,965742 
2,488015 1,002776 0,462695 -3,020630 -4,484121 1,756835 
-0,752147 -0,515648 -0,871445 -0,497516 0,006092 -0,782915 
-0,070049 -0,305475 -1,185940 0,287263 0,586231 0,266796 
0,522079 -0,119425 1,167993 1,633226 0,981748 -1,760317 
0,665509 -2,882674 -1,137857 1,225451 0,117617 0,324311 
0,182972 0,594759 -0,739319 -0,665833 -0,294249 -0,729259 
-1,069385 -1,216180 -0,784790 -0,168866 -0,986819 -0,730572 
-0,279661 -0,146750 -0,535687 -0,979817 0,271922 0,167241 
0,922211 0,712995 -0,955807 -0,195063 -0,747105 0,336588 
0,611314 -1,515632 -1,377703 -0,810073 -2,003095 2,070867 
-1,445750 -0,628385 0,073084 3,304550 -0,385324 0,498432 
1,294290 1,462982 0,455468 1,095874 0,060253 -1,495729 
-0,679197 0,028144 -0,591428 0,675220 -0,078197 0,581727 
0,502512 0,093291 0,508582 -1,085875 -0,530823 0,352500 
0,241137 0,122306 -0,755952 -1,154277 0,207737 0,294861 
2,536516 -0,809754 0,041142 -0,816909 -1,627927 -0,039206 
0,251244 -0,625523 -0,324414 -0,725230 -1,076775 -0,467569 
-1,182042 -0,884226 -0,129091 0,496119 0,166959 -0,948912 
-0,927368 0,324978 0,310745 -0,442021 -0,127276 0,053542 
-0,197019 0,534213 -0,813472 0,394353 -0,735127 0,180309 
0,002770 -0,040063 -0,376829 -0,179707 0,488018 0,865432 
0,001510 0,662083 -0,253424 0,385887 0,348413 -0,385309 
0,089839 0,174517 -0,144855 -1,124770 -0,916971 -0,238049 
0,562062 0,109530 0,852169 -0,466506 0,160410 -0,931477 
-0,653963 -0,931463 0,526192 0,047740 0,661268 -0,168006 
1,565640 -0,735096 -0,248685 3,764407 -2,192066 -0,477262 
-2,942714 1,332522 1,079075 -0,428539 -2,857763 0,739851 
-0,393004 0,544975 -0,017106 -1,128363 -0,032823 0,799752 
0,066836 0,239261 0,024184 0,515706 -0,153888 0,000835 
1,316797 -0,154246 -2,340619 1,141156 -1,638549 1,019550 
-3,371461 0,943443 1,324122 0,921748 -0,082849 0,569711 
-0,093576 -2,965934 0,645068 0,294303 0,813548 0,876342 
1,382324 0,964715 -2,721789 1,661878 0,450263 0,440625 
0,252931 -0,154513 -0,158155 -0,582854 0,646423 0,092876 
0,685043 0,188613 -0,539381 0,010452 -0,137560 -0,568793 
-0,955985 0,686636 -0,411871 -0,447331 -0,342602 0,033357 
1,384250 -3,124550 -0,603212 1,452365 2,723432 0,959007 
1,118568 0,575092 -0,305172 0,101474 0,373496 1,039596 
-0,444226 0,590859 -0,712562 -0,425645 -0,545097 0,046342 
-0,051522 0,281446 0,713231 0,100696 -0,128799 -1,052864 
0,199658 -0,978260 -0,254018 -1,103632 0,335621 0,179132 
-0,908815 0,430439 -0,664034 -0,477129 -1,122534 -0,195734 
-0,851061 -0,954588 -0,210141 0,238079 -0,331875 -0,406775 
0,365546 0,586062 -0,674909 -0,589574 0,496333 0,465094 
-3,789035 -0,869754 1,222265 0,766601 0,893458 -0,905675 
-0,489330 -0,453692 -0,551131 0,348378 -0,506894 -0,954392 
-2,538678 0,798099 -0,487008 2,959619 -2,209325 0,734158 
-0,365049 0,533167 -0,466924 0,985765 0,605295 0,281519 
0,668311 0,709025 -0,038408 0,248431 -1,226916 -0,620501 
0,136230 0,409259 -0,442095 -0,332630 -2,658732 0,799657 
-0,448785 0,349699 -0,321313 -0,614023 0,175853 0,737028 
-0,098685 -0,480936 -0,209655 -0,788783 -0,321630 -0,294836 
-2,365140 -2,226805 1,446045 -1,928275 -3,076600 1,381955 
0,412197 0,562838 -0,632323 0,430087 0,382827 -0,072392 
-1,158007 0,403103 -0,073653 -0,044737 -0,286399 -0,697416 
0,265073 -0,509666 0,179508 -0,236295 0,140243 -0,218661 
0,412767 0,379600 -0,819707 0,371589 -0,320830 -0,657129 
-2,721087 -2,542572 0,899335 1,008892 1,819909 -0,979187 
1,867190 1,177512 -2,624474 1,304657 -2,890340 1,211993 
-0,256442 0,279916 0,094202 -0,055392 -0,461259 0,468888 
-3,061249 -3,225675 1,385198 -1,837939 2,158007 0,897786 
-0,821388 -0,642328 0,209881 -0,638363 -1,311161 -0,606978 
-0,084063 0,060971 0,453103 -0,728073 -0,424844 0,034788 
2,429296 -1,040471 -0,126391 2,176040 -2,814113 -0,502778 
0,401838 0,537129 -0,311519 -0,658276 -0,086280 -0,778543 
-0,464535 0,565395 -0,652656 0,205957 -1,192907 -0,018561 
-0,431381 0,587732 0,094969 -0,245360 -0,154217 0,244933 
-0,319758 -0,888036 0,611017 -0,079456 -0,024610 -0,167221 
-0,683608 -0,032486 -0,992799 -0,601807 0,654738 0,182612 
-0,701111 -0,430180 -1,018352 -0,254294 -0,578666 -0,220995 
-1,050342 -0,230023 -0,607156 -0,936296 0,681995 -0,633195 
-0,423523 -0,845395 0,426559 0,138521 -0,645614 -0,184026 
-0,815332 0,658324 0,846123 0,610754 0,113429 0,009474 
0,868321 0,581540 -1,592250 1,048385 1,418139 0,658077 
0,026569 0,558786 -0,674212 0,017486 -0,538246 0,384711 
0,139315 -0,414842 0,052580 -0,003897 -0,663769 0,280879 
1,301009 -1,412471 -0,581153 2,456598 -2,922197 -0,479773 
1,305983 -2,758144 -0,148075 1,063881 -3,005200 0,489846 
-0,246695 -0,439049 0,172798 -0,426476 -0,262252 -1,006290 
0,222565 0,368453 0,115945 -0,902851 -0,791241 -0,549019 
0,014862 0,295049 -0,693689 0,943698 -0,092142 0,553615 
0,298358 -0,182463 -0,532765 -0,460467 0,632914 0,896887 
-0,474139 -0,147409 0,374611 0,337739 -0,594399 -0,553910 
-0,380191 0,055464 -0,792566 -0,123268 -0,424080 0,132752 
1,824889 1,700781 -0,221041 1,894435 -3,792578 -0,585739 
-0,088700 -2,250852 -0,299382 1,195806 0,331807 -0,031440 
-0,234452 0,325580 -0,445341 -0,587616 0,416831 0,002113 
1,372693 0,639432 -2,854466 1,629543 0,038717 0,774775 
-0,509856 -0,515207 0,112953 0,318683 0,197183 -0,279568 
0,088099 -0,152702 0,280237 -0,241702 -0,116956 -1,023468 
-0,340875 -0,183761 0,455722 -0,441722 -0,697602 -0,412554 
0,650164 0,138302 -0,499564 0,079408 0,124521 -0,455047 
-0,020283 -0,964572 -0,941686 -0,615790 -0,299264 -0,675937 
3,194668 -1,570060 0,294003 -1,625324 -3,024339 1,661977 
-0,528844 -0,795893 -0,915762 -0,694976 -0,078438 0,074498 
-1,148823 0,111455 -0,557049 -0,962814 0,244297 -1,024265 
-0,637676 -0,891138 -0,253531 -0,334265 0,056270 0,226064 
-0,507818 -0,679420 0,193626 -0,885278 0,148895 -0,527062 
0,361489 0,101978 -0,431130 -0,566491 -0,741275 -0,147291 
0,308278 0,663857 -0,043152 -0,548073 -0,488171 0,347771 
0,555982 0,752734 -0,694285 -0,682917 -0,848234 -0,520215 
0,333133 0,647343 -0,127178 -0,093326 -0,094566 0,675693 
-0,717591 -1,907605 0,908260 -1,594137 -2,374141 0,758012 
0,027108 -0,297367 0,303442 -0,990939 -0,734362 0,661297 
1,596973 -1,918730 -1,759820 -0,011501 -2,325244 1,656953 
-0,210712 0,128401 -0,530933 -0,303659 -0,705233 0,135342 
-0,767793 -0,702632 0,665171 -0,782365 0,754784 0,222457 
-1,475913 0,305338 0,576209 0,217727 0,988297 -0,435326 
-0,255410 -0,480946 -0,577911 -0,023857 0,239766 0,081974 
0,513648 0,028713 -0,407510 -0,773809 -0,749504 0,282050 
-0,108879 0,116336 -0,039372 0,892612 -1,250663 -0,545365 
-0,397205 0,049105 0,288954 0,383049 -0,387144 -0,545532 
-0,256032 -0,107002 -0,133951 -0,830998 0,099519 -0,814307 
-1,233480 -1,892072 1,778975 -2,076459 -2,755218 1,512993 
0,347396 0,593800 0,411230 -0,733913 0,457621 0,906557 
-0,518860 -0,288623 -0,702184 0,464253 -0,522695 -0,116766 
0,346667 1,105849 0,307343 0,961008 -0,134713 -0,827836 
-0,360143 -0,379881 -0,214469 -1,147643 -0,591165 0,220553 
0,318421 -0,989660 0,129382 -0,434101 0,265188 -0,020521 
0,459781 0,689087 0,452070 1,403815 0,504279 -1,740524 
-0,570482 -1,029618 -0,496290 -0,506752 -1,149711 -0,849490 
-0,936828 -0,047273 0,633012 -0,305157 0,577672 -0,134715 
-2,492381 -0,186926 1,308883 0,346585 0,060062 0,684611 
-3,989839 0,233618 1,692675 -0,308657 1,071086 -0,153639 
0,922247 0,430159 0,792398 0,669361 0,724251 -0,742477 
0,052696 -0,105229 0,515667 -0,365065 0,064667 -0,956202 
0,676779 -0,146841 -0,593380 -0,284269 -0,514796 -0,667141 
0,406829 0,252185 -0,485165 -0,292432 0,581226 -0,424749 
0,248930 0,587501 -0,480706 -0,251113 -0,945177 -0,055512 
0,836536 0,331604 -0,574606 -1,148712 -0,379711 -0,700868 
0,127410 0,235009 0,523820 -0,432110 0,626596 0,183474 
0,772373 -0,917471 0,516974 0,140849 -1,273318 0,664252 
-2,599870 2,323889 -0,788419 2,691272 -2,499162 1,293713 
0,875047 0,885750 -0,982235 0,592202 -0,575829 0,577404 
-0,580718 -0,397965 -0,645475 0,399727 -0,962121 -0,937531 
0,094455 0,310670 0,112545 0,159382 0,195185 0,473120 
-0,273636 -0,185631 0,219194 -0,084653 0,657949 0,646741 
-0,066205 0,031966 -0,302742 -0,644817 -1,063777 -0,613147 
0,734065 -0,094841 -1,383190 -0,465455 1,057885 0,693979 
-1,073156 -0,859424 0,921020 -1,157852 0,027237 -0,832684 
-0,134641 -0,492100 0,081218 -0,722155 0,597373 0,631022 
-0,726532 -1,621182 0,051812 0,265969 -0,108371 1,444817 
0,452085 1,820618 0,573014 1,122998 -0,722691 -1,563714 
0,124074 0,709740 0,169123 -0,160126 0,276546 0,539158 
-0,115741 0,768527 -0,387199 -0,697631 0,636748 0,024104 
-0,309853 -0,343335 0,074071 -0,465980 -0,143119 -0,976538 
0,933989 0,613499 -0,261383 1,150926 -2,549662 0,270874 
0,685740 -0,557140 -0,958304 -0,917563 -0,486479 0,072821 
-0,265223 -1,008836 0,241138 -0,098552 0,559751 -0,475841 
-0,474168 -0,128673 0,955512 -0,627883 0,746210 -0,220221 
0,465666 0,510483 -0,716473 -0,772624 -1,228132 -0,450444 
0,430805 -0,091365 0,326923 -1,171248 0,333920 0,515966 
0,322871 -0,403711 -0,079971 0,640070 -0,211715 0,149343 
-0,390904 0,672967 -0,128907 -0,596560 0,241039 -0,271795 
0,972024 0,914436 0,172081 1,285813 0,224350 -1,672955 
0,406274 0,201300 -0,086778 -0,251039 0,141906 0,226063 
-2,836597 -0,025164 1,124105 -0,065572 -0,111252 0,587661 
-0,384928 -0,887543 0,442838 -0,029407 -0,371441 -0,542225 
-0,788631 0,158386 0,691451 0,294537 -0,013104 -0,034861 
0,375056 0,293755 0,231736 -0,876684 0,224876 0,426749 
0,309754 0,185659 -0,527023 0,404186 0,564086 -0,284879 
-2,618738 1,369604 0,663624 2,083715 -2,916922 0,138695 
-3,314529 -3,264771 1,774581 0,196679 1,752374 -0,323121 
0,746863 -1,109217 -2,382384 1,184228 0,633184 0,743085 
0,399321 0,618700 0,560074 0,065242 0,336308 -0,889124 
-0,477708 0,118262 -0,807914 0,043099 0,385289 0,348784 
-0,530063 -0,228856 -0,531495 0,296134 0,044684 0,364701 
-0,527451 -0,355391 -0,768469 -0,088660 0,095803 -0,360360 
1,309561 0,486201 -0,002795 1,654916 -2,666369 -0,995091 
-0,420382 -0,380559 -0,529897 0,968505 0,533419 -0,071270 
-1,318901 -2,073092 1,319025 3,704879 -2,534056 -1,224343 
0,396589 0,564747 -0,418152 0,562238 -0,539171 -0,305752 
0,290344 1,242266 0,449932 0,683700 -1,231961 -0,631669 
-1,312176 1,066884 0,892800 0,630205 -0,453702 -1,327912 
0,377922 -0,608742 0,640332 -0,182137 -0,201155 -0,047411 
-3,199195 1,322853 -1,205922 1,056074 -2,071815 1,193603 
1,106137 -2,772265 -0,725812 -0,936353 -2,456272 1,083898 
0,631372 -0,733307 0,632075 -0,565786 0,900412 0,095382 
0,409226 -0,481486 -0,309718 0,285042 -0,181515 -0,774620 
-1,183310 -0,676743 0,003120 0,575965 -0,675621 -0,676837 
-0,678352 0,690902 -0,102553 -0,992493 -0,175339 -0,521223 
0,144557 -0,565307 -0,686212 -0,413568 0,551713 0,283569 
-0,915907 -0,646129 0,016973 -0,832779 -0,536638 -0,789123 
0,154827 -0,649930 0,256864 -0,462439 -0,626457 0,401565 
-2,446119 2,161342 0,967116 -1,818649 -4,129336 1,482443 
-0,919941 -0,533582 -0,436779 -0,440316 0,181862 0,491889 
-1,066133 0,070332 -0,004755 -0,459298 -0,881321 -0,758095 
-0,388553 -0,531567 -0,534159 0,874821 0,878483 0,414526 
-0,759574 0,040743 0,596343 -0,656140 0,266808 -0,467047 
-3,935576 0,994638 1,406845 0,769748 0,553046 0,790487 
0,112175 -1,006773 -0,164809 0,345537 0,542058 0,141260 
0,043935 0,577988 0,560117 -0,924462 0,573867 -0,250084 
-0,180562 -0,130899 -0,118565 -0,682338 0,451157 0,198163 
0,563575 -0,459531 -0,467261 -0,472806 0,700644 -0,138364 
-0,706824 -0,285322 0,118298 -0,594629 0,277341 0,601006 
-0,442917 -0,227906 -0,813338 0,460472 0,586608 -1,013288 
0,397981 0,620805 -2,567019 1,798029 1,052043 0,807100 
-0,884016 -0,249769 -0,127961 -1,017931 -0,395386 0,453615 
-0,824239 0,727298 -0,837687 -1,060755 0,656279 0,397064 
-1,108299 0,041426 0,235026 -1,119602 0,581052 -0,149893 
-1,932585 -1,249412 0,152895 2,822676 -1,275288 0,123905 
0,134431 -0,648756 -0,620658 -0,726059 -1,071781 -0,910733 
-1,216707 -0,852811 -0,422706 0,130750 0,392414 -0,355117 
0,954049 -2,137828 -0,135484 0,890166 1,376063 0,834434 
0,179238 0,473192 0,074850 -1,100874 -0,840863 0,063070 
-0,709750 -0,051709 -0,643661 -0,987909 0,349317 0,415352 
-0,637519 -0,260232 -0,021284 -1,173638 -0,458075 0,274883 
-0,965212 -0,403631 0,567104 -1,660473 -2,833281 2,019579 
0,669693 0,946306 0,941881 -0,436900 0,004228 -0,988369 
-0,171163 -0,871755 0,260663 0,164776 0,537270 -0,302704 
0,497819 0,151411 0,749383 0,081356 -0,148820 -0,945434 
0,294896 0,429256 0,624296 1,166604 0,961134 -1,577958 
0,468762 -0,321901 0,943746 -1,253742 0,746137 0,022851 
-1,053483 -0,849541 -0,364597 -0,600612 -0,681234 -0,920175 
0,118496 0,564178 -0,334264 -0,076502 -0,537649 0,660121 
-0,677948 -0,056472 -0,549247 -0,753795 -2,867698 0,496232 
0,252661 -0,723471 -0,165024 -1,043475 0,515945 0,362294 
-1,036963 1,027718 0,287976 -0,607164 0,274038 0,700613 
0,416772 0,543645 -0,448474 0,398615 -0,694087 -0,404898 
-0,511685 -0,161531 0,491365 -0,223532 0,078901 0,489614 
0,479250 0,104335 0,192061 -0,428421 0,116964 0,589759 
-0,754902 -0,568372 -0,209767 0,504648 -0,258546 -0,587762 
0,584934 2,096756 1,057180 0,694658 -3,201341 0,230491 
-0,930715 -0,303979 -0,667136 -0,735537 0,253314 -0,315977 
-1,215424 0,521113 -0,385969 0,525631 0,289344 -0,701665 
-0,691746 0,568357 -1,038227 0,499069 0,089671 -0,303408 
0,723002 0,962239 1,018404 0,561892 0,430075 -1,805486 
0,011768 -2,374497 0,642328 0,525837 0,399918 -0,092449 
0,107221 -0,922696 -0,312196 -0,733758 0,017929 0,013383 
-0,118323 -0,709858 -0,642950 0,514777 -0,017296 -0,787453 
0,299068 -0,697557 -0,581029 -0,291506 -0,308530 -0,098949 
-0,936088 0,250327 0,716969 0,490463 -0,623613 -0,916836 
1,070644 0,083726 0,956183 1,449884 0,002171 -1,191092 
-0,013254 0,293635 -0,392057 0,359279 -0,857098 -0,612230 
-0,098324 0,466814 -0,484351 -0,658182 0,143627 0,386678 
-0,872819 0,084003 -0,445061 0,300915 -0,294322 -0,155533 
-0,467197 0,253623 -0,139783 -0,394485 -0,868413 -0,467964 
0,232145 0,499289 -1,959217 0,911586 0,316161 0,823346 
0,441315 0,043249 -0,406826 -0,484463 -1,192374 0,322087 
-0,274813 -0,680343 -0,818553 0,085484 -0,502459 -0,859859 
-0,216716 -0,304190 0,284708 -1,068514 0,166400 -0,568178 
-2,003087 1,352570 0,371840 0,810092 -2,742907 0,982218 
-0,072469 -0,319640 -0,328218 -0,586773 -0,591636 0,799209 
2,197929 -1,146939 1,161883 -1,898697 -2,938339 0,398401 
0,353211 -0,003671 0,538550 -0,497971 -0,229446 0,179612 
-0,435454 0,438145 0,020747 -0,615241 -0,224484 0,223707 
1,022053 1,184541 0,519714 1,201132 0,690527 -1,266528 
-1,014174 0,227980 0,599800 -0,681315 -0,327182 -1,025448 
-0,551091 -0,294156 0,006310 -0,874894 -0,084133 0,782154 
-1,062736 -0,045374 0,280314 -0,506273 -0,018243 -0,094888 
-1,030542 0,284925 -0,195303 -0,743429 -0,496376 -0,668787 
0,011699 -0,870223 -0,041753 -0,265269 -0,288306 0,192693 
-1,775008 -1,071701 1,570117 0,077231 -1,895940 0,028409 
0,133807 -0,862747 -0,557287 0,614658 0,024912 -0,426297 
0,572296 0,896881 0,505666 -0,850752 0,684908 0,227977 
-0,178943 -0,709572 -0,929285 1,275071 0,865944 0,575079 
-0,104831 -0,509566 -0,339909 -0,651154 -1,118568 1,116408 
-0,110006 -0,618285 -0,581723 0,647479 0,247973 -0,984681 
-0,432371 0,853496 -1,245929 0,591194 -0,342318 -0,490252 
0,632330 -0,923697 0,058537 -0,347220 -0,140995 0,347516 
0,329636 0,234627 -0,292685 -0,762370 0,480819 0,041165 
-0,715662 0,358812 -0,547771 0,793744 -0,746615 -0,140414 
0,132423 0,653507 0,095780 0,297932 -0,529923 0,406574 
-0,160669 0,468822 -0,307793 -0,446590 -0,810251 -0,841702 
0,804790 -0,271177 -0,758402 -0,944759 0,463593 -0,288761 
0,131741 -1,430079 -0,810636 0,031372 0,373392 0,736135 
-0,624762 -0,954296 -0,137566 -0,558425 0,345288 -0,248217 
-0,482815 1,029392 0,907254 -1,098691 -0,538768 0,413683 
-0,875305 -1,829024 -0,226648 -0,119680 -0,674540 1,219174 
0,521548 -0,048338 -0,162073 -1,090725 0,013301 -0,142212 
-4,188650 0,430258 1,620766 0,375521 1,832316 0,877930 
-0,270731 0,699217 -0,011319 -1,094024 -1,035455 0,057424 
-0,621271 0,387006 -0,080316 -0,101642 0,139707 -0,205741 
-0,759217 -1,071411 0,057461 -0,436134 -0,401367 -1,000801 
0,198635 -0,871107 0,099793 0,238046 0,166949 0,151331 
-0,204417 -0,527939 -0,092748 -0,713973 -0,052238 -0,254983 
-0,672972 -0,636843 0,613544 -0,880682 -0,248779 -0,735337 
0,209250 -0,010011 0,556492 -0,849102 -0,803039 -1,293408 
0,261689 -0,104962 0,168477 0,412399 0,390449 -0,970083 
-0,389454 -1,068568 -0,650730 0,845292 0,678427 0,474048 
-0,176598 0,804579 0,205332 -0,833980 -0,014463 0,519990 
0,544968 0,193630 0,084851 -1,117749 -0,130032 -0,615283 
-0,430310 0,443137 -0,585003 0,554824 0,479544 0,113211 
-0,919865 -0,274878 0,534591 -0,095254 0,525632 -0,447287 
1,062850 0,662750 -2,226496 1,301265 0,690038 0,894518 
0,127832 0,330062 -0,493174 -0,146948 0,062990 -0,402165 
-1,881515 0,648870 0,802813 0,126824 0,539642 -0,506098 
0,280808 -0,247582 0,025859 -0,186484 -0,040645 0,331485 
-0,492989 -0,995669 -0,184778 0,478160 0,490064 -0,957960 
-0,129970 -0,521268 -0,314872 0,152609 -0,581081 -0,914774 
-2,375032 -1,439724 1,192404 0,761060 1,470892 -0,767361 
-0,076845 0,845847 0,586757 1,266293 0,518025 -0,649323 
-1,041297 0,048266 -0,848011 0,426595 0,595439 -0,613298 
-1,015701 0,254230 -0,292142 0,392376 -0,140111 -0,349028 
0,092777 -0,020249 1,239813 -0,898537 0,613302 0,660456 
0,205777 0,679493 0,242930 -0,563908 -0,842263 0,115337 
0,383936 0,729266 -0,358012 0,159244 0,338885 0,837280 
-2,658404 -1,673546 1,252374 -1,830200 -2,942839 0,785302 
-0,350420 0,621150 -0,302417 0,412147 0,253589 -0,836900 
-0,289331 0,220439 0,717174 0,306871 -0,686689 0,517639 
-0,872150 0,519951 -0,181547 -0,305257 0,016267 0,333871 
-1,900482 -2,410618 2,201731 -1,449389 1,121681 0,496421 
0,911298 0,920983 0,147343 0,074846 -3,619577 0,726810 
2,952407 -1,277800 0,455049 0,380891 -2,915912 -0,094473 
0,620077 0,289928 0,125527 0,501458 -0,213081 -0,974642 
1,066612 -2,343267 0,581461 -1,680125 -3,423255 1,279682 
2,292346 1,260589 0,198264 2,559570 -3,186878 -1,461183 
-1,554725 -1,812634 1,629485 -1,827322 -2,531081 0,715022 
-0,072485 -0,137929 0,940604 -0,919592 0,246566 0,272949 
-0,057976 -0,060139 -0,313798 -0,944536 0,128077 -0,814759 
-1,164491 -0,578554 -0,242013 -0,028785 0,017976 -0,619963 
-0,509430 -0,594954 0,173385 0,373389 -1,888656 -0,456376 
2,964424 -1,551035 -0,597855 1,570261 -1,898385 0,428866 
-0,970612 0,748959 -0,254253 -1,099948 -0,377630 0,012318 
-0,783820 -0,894342 -0,262636 -0,634261 -0,484691 0,316835 
-1,997824 -2,220314 1,434042 -1,318694 -1,752330 1,823177 
-0,513370 0,503253 -0,469378 -0,374089 0,462716 -0,927192 
-0,110696 -0,355988 0,292065 -0,086642 0,145628 0,133156 
1,228255 1,021670 -0,612008 0,155500 -1,987044 0,835171 
-0,071132 -0,405287 0,172774 -0,180702 -0,777856 0,744458 
0,383483 0,166485 -1,006249 0,905044 0,477546 0,594910 
-0,083037 -0,320549 -0,685301 0,086625 1,304389 0,911553 
-0,203661 -0,237424 -0,546190 0,381111 0,688176 0,810927 
-0,309359 -0,361654 0,556814 -0,126514 -0,841810 -0,881710 
0,128296 0,116905 0,349368 0,783859 -0,226185 -0,448934 
-2,114134 1,706841 0,568310 -1,222695 -3,442506 1,492528 
-4,442318 0,810547 1,358551 0,495981 1,365994 0,523984 
-0,441222 -0,652379 0,571295 -0,913272 -0,703866 -0,695195 
0,536905 0,148547 0,373001 0,602611 -0,798926 -0,164931 
0,178402 0,556227 -0,629482 -0,961140 0,032159 -0,171666 
0,844541 0,185210 0,647025 -1,695347 -0,055798 0,809134 
-2,239131 1,623436 0,072645 1,928544 -3,164636 0,769767 
0,586098 -0,119266 -0,533515 -0,176090 -0,874039 -0,386631 
0,618187 -0,625486 0,276654 -0,872082 0,133387 -0,526340 
0,854439 0,993372 -0,039543 0,046599 -0,533004 0,502590 
-0,089241 -0,698017 0,139435 -0,486069 0,490954 0,083495 
-1,833831 -1,779816 1,080105 -0,618572 -1,960581 0,954198 
0,654444 -0,555417 -0,299096 0,159293 0,599114 0,046399 
-0,206338 -0,412503 -0,235181 -1,101140 0,342038 -0,748757 
-0,497840 -0,572643 -0,886687 0,874389 0,283520 -0,059917 
-1,464402 -1,694772 0,764036 1,043668 -1,962047 -0,223075 
0,745199 0,715402 -0,394114 -0,311752 -0,205042 -0,519300 
-1,044979 -0,482492 0,084042 0,143553 -0,599596 -0,241510 
0,167468 -0,335630 -0,117966 -0,559635 0,729004 0,307469 
-0,431967 -0,151792 -0,551433 -1,083425 -0,624811 0,581459 
-0,285669 -0,157911 -0,444069 0,607226 0,603550 0,407040 
-0,807686 0,395336 -0,674600 0,730239 0,033314 0,360674 
-0,135533 0,285685 -0,761234 -0,173433 0,501887 0,714038 
-3,258530 0,468592 0,860779 1,287688 0,484667 -0,214551 
-0,605615 0,241494 -0,823639 0,525358 -0,579952 0,036966 
0,101916 0,260777 -0,384863 -0,610252 -0,262523 -0,274716 
0,279878 0,875611 -0,309147 -0,784608 -0,366949 0,425166 
-0,344550 -0,590268 0,602093 0,050452 0,384932 0,238225 
0,033408 -0,263596 0,466919 0,474011 -0,270347 -0,556093 
0,331558 -0,401227 -0,421784 -0,910627 0,556526 0,848222 
0,477069 -0,035166 -0,013243 -0,936139 -0,595835 0,421403 
0,192926 -0,406751 0,680640 -1,022184 0,085645 -0,478184 
-0,300657 -0,302883 -0,394161 -0,070138 0,309284 -0,287695 
0,365132 0,723996 -0,840172 -0,225919 -0,783471 -0,625313 
-0,409480 -0,214993 0,358599 -1,165193 -0,858118 -0,380863 
-0,527794 -0,183533 -1,320416 0,914967 -0,549871 -0,092274 
0,227621 0,655027 1,240598 -1,074656 0,691481 0,588089 
1,333318 -2,496129 0,923392 1,253831 1,538474 -0,548112 
1,007845 -0,068764 0,483410 -2,684296 0,814795 1,393357 
-0,151763 0,116111 0,038683 -0,352266 -0,138284 0,689792 
0,887914 0,935225 -0,395411 0,204979 -3,835433 0,871214 
2,588681 -1,701387 1,238371 -2,166835 -2,869310 0,460790 
-0,729787 -0,053187 -0,482394 -0,106553 -0,256786 -0,883500 
-0,034271 0,710193 -0,374598 -0,125837 -0,049676 -0,407165 
-0,707871 0,449280 -0,835796 -0,420133 0,197077 0,407345 
0,468898 0,840841 -0,239441 -1,147964 0,381431 0,253431 
0,177549 -0,160712 0,401157 -1,449913 -0,197031 0,899446 
0,274083 -0,774800 0,775765 -0,315564 -0,996473 0,456176 
0,764498 -0,396659 -0,677264 -0,385555 -1,063422 0,165368 
-0,755498 0,068496 -0,072847 -0,437325 0,663472 -0,488093 
-1,801774 -3,865520 1,207099 1,466748 2,389654 -0,141554 
0,409803 0,346803 -0,749935 -0,549670 0,101443 -0,143521 
-0,648620 -0,213080 0,688524 -0,710163 0,015678 -0,147890 
-1,826700 0,921977 0,511339 0,281571 0,301484 -0,254608 
0,313915 0,011037 0,026594 0,200507 -0,288121 -0,677104 
-0,216265 0,058022 0,020173 0,022521 -0,043725 -0,630675 
-0,004367 0,310819 -1,035026 0,875564 -2,644086 0,380784 
1,919828 1,034093 -2,551021 1,373354 -2,014209 1,226045 
-1,123792 -1,322411 0,597027 0,377762 -0,863998 1,057048 
-1,052122 0,321574 -0,080862 -0,498056 -1,119663 -0,433659 
-0,410689 -0,111700 -0,665708 -0,430739 -0,178124 -0,306230 
-2,196890 -2,425434 1,788737 -2,226662 -2,752391 1,252210 
-0,762465 0,960616 0,073608 0,564326 0,513651 0,200112 
-0,404012 -0,666648 0,588657 1,947665 -0,544947 0,153349 
-0,038675 0,208294 0,447531 0,462673 -1,005576 -0,601098 
1,588699 -1,193911 -0,216170 2,286775 1,168972 -0,241801 
0,387465 0,591985 1,278252 -0,806614 -0,388454 0,236234 
0,167125 0,027412 0,759385 0,480104 -0,630272 0,847021 
-1,916875 -1,325123 1,390421 2,803222 -1,477172 -0,892987 
-0,659455 0,394255 0,143991 -0,588145 0,052686 -0,893082 
0,030827 -0,498854 -0,726622 -0,889622 0,283353 0,918711 
1,088493 -0,427129 0,388076 0,525432 0,490041 -0,506432 
1,764698 1,907544 0,092097 2,040568 -2,014183 -0,911008 
-0,727840 -0,382587 0,039828 -0,717208 -0,886896 0,162263 
-1,403075 -0,004459 0,276024 0,272943 0,575878 -0,926040 
-0,410822 0,103878 -0,237865 -1,128313 -0,202920 -0,365751 
-0,568763 0,053700 -0,016668 -0,394767 0,198993 -0,701275 
0,156316 0,060430 -0,284338 -1,088392 0,034504 0,398197 
2,493022 0,007607 0,509904 2,499579 -2,528029 -0,443500 
-0,155306 0,477082 0,016468 -0,224558 -0,146860 -0,249573 
0,898733 -0,166779 -1,347977 -0,600305 0,311361 0,724033 
-0,210424 -0,654879 0,587277 -0,813558 -0,414025 0,054685 
0,075701 0,444528 0,195640 -0,138534 -0,612231 -0,059787 
-0,418108 -0,844183 0,424643 -0,658635 -0,188228 -0,368799 
-0,813344 -0,227420 0,485840 -0,274717 -0,143814 -0,810497 
-0,662730 0,277058 -1,017008 0,625376 -0,203663 0,429924 
-1,212586 0,581205 0,623305 2,015381 -2,845477 -0,587332 
0,515545 -1,076439 -0,325287 -0,644855 -0,497252 -0,452174 
0,751609 -0,337492 0,544322 -0,552429 0,093850 -0,210261 
-0,286653 -0,793406 1,629423 -0,932676 -1,261849 0,574867 
-0,822483 -1,692938 -1,299798 1,103000 -1,274302 1,160013 
0,404360 -0,219574 0,272321 0,603517 0,553527 0,175050 
0,398676 0,192595 -0,184457 0,357995 -1,433199 -0,295280 
-0,386217 0,322965 0,210801 0,038527 0,418916 0,165691 
-0,801590 0,163232 -0,143980 -1,053341 -0,033380 -0,480909 
0,649460 -0,318125 -0,530689 -0,440718 -0,749778 -0,587085 
-1,183515 -0,969330 -0,163524 -0,932383 0,013960 -0,412905 
1,602058 0,828271 0,223189 -2,939295 -2,542212 1,321723 
-4,142014 0,375431 0,761790 1,208752 0,273309 -0,409660 
0,190138 2,513885 1,451777 2,515593 -1,122869 -0,768998 
-0,359300 -0,655576 0,489667 -0,225794 -0,001938 0,552918 
0,555004 0,203545 0,903702 -0,117901 0,294170 -0,717332 
-2,873463 0,935225 -0,203883 1,383862 1,354437 0,801006 
0,029809 0,271510 0,883311 0,389234 0,609595 -0,880451 
-0,981314 0,076328 0,115132 -0,162498 -1,097675 -0,081392 
-0,262302 -0,699177 -0,821754 -0,879457 0,314730 0,893232 
-2,930315 0,848516 1,409348 -3,108965 0,029237 0,772444 
1,191744 0,324745 -0,089498 -0,001475 -4,299747 0,929658 
-1,070600 -0,024868 -0,889275 -0,416543 -0,621332 -0,804415 
-0,853644 -0,318004 -0,493413 0,311378 -0,997490 -0,638094 
-1,167935 -1,958543 -1,304657 -0,252359 -1,657315 1,951893 
0,340614 -0,954582 -0,017360 -0,159543 -0,068982 0,302017 
-0,191342 -0,275434 0,393812 -1,143669 -0,483414 -0,234457 
0,593100 0,445058 0,475639 0,605346 0,080428 -0,448923 
-0,018608 0,902768 0,614436 -0,739633 0,068923 0,157246 
-0,316959 -0,182619 0,833367 -1,074595 0,073079 0,158767 
-0,093185 0,036361 0,129123 -0,940791 -0,835130 0,340190 
